{"learner":{"attributes":{"scikit_learn":"{\"_estimator_type\": \"regressor\"}"},"feature_names":["lat","lon","month"],"feature_types":["float","float","int"],"gradient_booster":{"model":{"gbtree_model_param":{"num_parallel_tree":"1","num_trees":"200"},"iteration_indptr":[0,1,2,3,4,5,6,7,8,9,10,11,12,13,14,15,16,17,18,19,20,21,22,23,24,25,26,27,28,29,30,31,32,33,34,35,36,37,38,39,40,41,42,43,44,45,46,47,48,49,50,51,52,53,54,55,56,57,58,59,60,61,62,63,64,65,66,67,68,69,70,71,72,73,74,75,76,77,78,79,80,81,82,83,84,85,86,87,88,89,90,91,92,93,94,95,96,97,98,99,100,101,102,103,104,105,106,107,108,109,110,111,112,113,114,115,116,117,118,119,120,121,122,123,124,125,126,127,128,129,130,131,132,133,134,135,136,137,138,139,140,141,142,143,144,145,146,147,148,149,150,151,152,153,154,155,156,157,158,159,160,161,162,163,164,165,166,167,168,169,170,171,172,173,174,175,176,177,178,179,180,181,182,183,184,185,186,187,188,189,190,191,192,193,194,195,196,197,198,199,200],"tree_info":[0,0,0,0,0,0,0,0,0,0,0,0,0,0,0,0,0,0,0,0,0,0,0,0,0,0,0,0,0,0,0,0,0,0,0,0,0,0,0,0,0,0,0,0,0,0,0,0,0,0,0,0,0,0,0,0,0,0,0,0,0,0,0,0,0,0,0,0,0,0,0,0,0,0,0,0,0,0,0,0,0,0,0,0,0,0,0,0,0,0,0,0,0,0,0,0,0,0,0,0,0,0,0,0,0,0,0,0,0,0,0,0,0,0,0,0,0,0,0,0,0,0,0,0,0,0,0,0,0,0,0,0,0,0,0,0,0,0,0,0,0,0,0,0,0,0,0,0,0,0,0,0,0,0,0,0,0,0,0,0,0,0,0,0,0,0,0,0,0,0,0,0,0,0,0,0,0,0,0,0,0,0,0,0,0,0,0,0,0,0,0,0,0,0,0,0,0,0,0,0],"trees":[{"base_weights":[-2.8644602E-9,5.600811E-1,-4.7781402E-1,-3.9200732E-1,1.0472748E0,-3.031422E-1,-7.5449437E-1,3.9537498E-1,-9.4147056E-1,1.2713013E0,3.720583E-1,-3.8924968E-1,2.1826102E-1,-5.347553E-1,-1.0457387E0,-2.336136E-2,8.3030844E-1,-1.5450631E0,-3.5547546E-1,1.4500217E0,8.585964E-1,5.3605404E-2,1.0498496E0,-1.8308601E-1,-7.880418E-1,2.7189642E-1,-1.1639026E-2,-7.2610086E-1,-3.4741837E-1,-1.361549E0,-3.0585405E-1,3.7138145E-2,-1.5457148E-2,1.1510362E-1,7.095607E-2,-1.0506308E-1,-1.753454E-1,1.1667113E-2,-4.4726796E-2,1.1447394E-1,1.5960641E-1,4.8514858E-2,1.054168E-1,2.212727E-2,-3.475911E-2,1.3574861E-1,8.666737E-2,-5.711494E-2,-1.0678153E-2,-5.064834E-2,-1.3625675E-1,3.0451655E-2,1.3943614E-2,-8.587157E-2,-5.7603378E-2,-3.1813964E-2,-4.2484492E-2,-1.04697704E-1,-1.6326632E-1,-2.413084E-2,-4.7174156E-2],"categories":[],"categories_nodes":[],"categories_segments":[],"categories_sizes":[],"default_left":[0,0,0,0,0,0,0,0,0,0,0,0,0,0,0,0,0,0,0,0,0,0,0,0,0,0,0,0,0,0,0,0,0,0,0,0,0,0,0,0,0,0,0,0,0,0,0,0,0,0,0,0,0,0,0,0,0,0,0,0,0],"id":0,"left_children":[1,3,5,7,9,11,13,15,17,19,21,23,25,27,29,31,33,35,37,39,41,43,45,47,49,51,-1,53,55,57,59,-1,-1,-1,-1,-1,-1,-1,-1,-1,-1,-1,-1,-1,-1,-1,-1,-1,-1,-1,-1,-1,-1,-1,-1,-1,-1,-1,-1,-1,-1],"loss_changes":[6.685013E2,5.3383984E2,6.4917786E1,1.6910089E2,1.14640625E2,3.7259453E1,3.27836E1,2.9341105E1,8.080229E1,4.08714E1,4.1170044E1,5.8311607E1,2.1496458E0,1.04657135E1,5.1690445E1,4.356327E0,2.2427177E0,9.800751E0,5.1662445E0,1.5872742E1,1.2269836E1,8.88896E0,2.2609482E0,1.38561735E1,3.8456406E1,3.9826822E-1,0E0,2.4308167E0,2.1168518E-1,1.1595093E1,6.1426306E-1,0E0,0E0,0E0,0E0,0E0,0E0,0E0,0E0,0E0,0E0,0E0,0E0,0E0,0E0,0E0,0E0,0E0,0E0,0E0,0E0,0E0,0E0,0E0,0E0,0E0,0E0,0E0,0E0,0E0,0E0],"parents":[2147483647,0,0,1,1,2,2,3,3,4,4,5,5,6,6,7,7,8,8,9,9,10,10,11,11,12,12,13,13,14,14,15,15,16,16,17,17,18,18,19,19,20,20,21,21,22,22,23,23,24,24,25,25,27,27,28,28,29,29,30,30],"right_children":[2,4,6,8,10,12,14,16,18,20,22,24,26,28,30,32,34,36,38,40,42,44,46,48,50,52,-1,54,56,58,60,-1,-1,-1,-1,-1,-1,-1,-1,-1,-1,-1,-1,-1,-1,-1,-1,-1,-1,-1,-1,-1,-1,-1,-1,-1,-1,-1,-1,-1,-1],"split_conditions":[7E0,3E0,8.094E1,2.029E1,6E0,1.3E1,1.1E1,2E0,2E0,8.513E1,2.684E1,1.1E1,2.861E1,2.559E1,1.3E1,1.308E1,1.308E1,2.559E1,7.72E1,4E0,4E0,8.582E1,7.72E1,7.578E1,2.029E1,8.027E1,-1.1639026E-2,9E0,1E1,1.2E1,8.836E1,3.7138145E-2,-1.5457148E-2,1.1510362E-1,7.095607E-2,-1.0506308E-1,-1.753454E-1,1.1667113E-2,-4.4726796E-2,1.1447394E-1,1.5960641E-1,4.8514858E-2,1.054168E-1,2.212727E-2,-3.475911E-2,1.3574861E-1,8.666737E-2,-5.711494E-2,-1.0678153E-2,-5.064834E-2,-1.3625675E-1,3.0451655E-2,1.3943614E-2,-8.587157E-2,-5.7603378E-2,-3.1813964E-2,-4.2484492E-2,-1.04697704E-1,-1.6326632E-1,-2.413084E-2,-4.7174156E-2],"split_indices":[2,2,1,0,2,2,2,2,2,1,0,2,0,0,2,0,0,0,1,2,2,1,1,1,0,1,0,2,2,2,1,0,0,0,0,0,0,0,0,0,0,0,0,0,0,0,0,0,0,0,0,0,0,0,0,0,0,0,0,0,0],"split_type":[0,0,0,0,0,0,0,0,0,0,0,0,0,0,0,0,0,0,0,0,0,0,0,0,0,0,0,0,0,0,0,0,0,0,0,0,0,0,0,0,0,0,0,0,0,0,0,0,0,0,0,0,0,0,0,0,0,0,0,0,0],"sum_hessian":[2.496E3,1.149E3,1.347E3,3.89E2,7.6E2,8.27E2,5.2E2,1.6E2,2.29E2,5.7E2,1.9E2,7.1E2,1.17E2,2.98E2,2.22E2,8.2E1,7.8E1,1.12E2,1.17E2,3.96E2,1.74E2,1.3E2,6E1,4.69E2,2.41E2,1.01E2,1.6E1,1.46E2,1.52E2,1.55E2,6.7E1,2E1,6.2E1,1.9E1,5.9E1,3.5E1,7.7E1,1.9E1,9.8E1,1.31E2,2.65E2,6.1E1,1.13E2,9.2E1,3.8E1,2E1,4E1,7.6E1,3.93E2,1.63E2,7.8E1,8E1,2.1E1,7.5E1,7.1E1,1.14E2,3.8E1,7.4E1,8.1E1,5E1,1.7E1],"tree_param":{"num_deleted":"0","num_feature":"3","num_nodes":"61","size_leaf_vector":"1"}},{"base_weights":[-9.887296E-5,5.045357E-1,-4.3061048E-1,-3.530777E-1,9.433855E-1,-2.7309597E-1,-6.801141E-1,3.5712776E-1,-8.4868646E-1,1.1449207E0,3.3595085E-1,-3.5068288E-1,1.9671243E-1,-4.8200804E-1,-9.4268626E-1,-2.0763965E-2,7.496326E-1,-1.3930383E0,-3.2020804E-1,1.30571E0,7.736164E-1,4.81485E-2,9.4851077E-1,-1.649215E-1,-7.1001E-1,2.4514192E-1,-1.0543579E-2,-6.544667E-1,-3.131621E-1,-1.2271119E0,-2.7631733E-1,3.360119E-2,-1.3935967E-2,1.04168765E-1,6.397871E-2,-7.0095435E-2,-1.5082933E-1,1.0558724E-2,-4.029929E-2,1.03113286E-1,1.4370577E-1,4.3741625E-2,9.4967596E-2,1.9938348E-2,-3.1372335E-2,1.228202E-1,7.821199E-2,-5.147761E-2,-9.613032E-3,-5.435158E-2,-1.5626974E-1,2.744407E-2,1.2612628E-2,-7.739739E-2,-5.1923048E-2,-3.5661917E-2,-2.7013088E-2,-9.436753E-2,-1.471388E-1,-2.1765074E-2,-4.271884E-2],"categories":[],"categories_nodes":[],"categories_segments":[],"categories_sizes":[],"default_left":[0,0,0,0,0,0,0,0,0,0,0,0,0,0,0,0,0,0,0,0,0,0,0,0,0,0,0,0,0,0,0,0,0,0,0,0,0,0,0,0,0,0,0,0,0,0,0,0,0,0,0,0,0,0,0,0,0,0,0,0,0],"id":1,"left_children":[1,3,5,7,9,11,13,15,17,19,21,23,25,27,29,31,33,35,37,39,41,43,45,47,49,51,-1,53,55,57,59,-1,-1,-1,-1,-1,-1,-1,-1,-1,-1,-1,-1,-1,-1,-1,-1,-1,-1,-1,-1,-1,-1,-1,-1,-1,-1,-1,-1,-1,-1],"loss_changes":[5.426931E2,4.3315106E2,5.279126E1,1.3757686E2,9.277661E1,3.02504E1,2.664656E1,2.3895784E1,6.5719925E1,3.307953E1,3.3626904E1,4.7341515E1,1.7525272E0,8.50161E0,4.192665E1,3.55873E0,1.8679352E0,7.9563446E0,4.2019787E0,1.283606E1,9.943069E0,7.231878E0,1.8782196E0,1.1261963E1,3.3506783E1,3.2106113E-1,0E0,1.9738998E0,1.8977833E-1,9.41243E0,5.0889635E-1,0E0,0E0,0E0,0E0,0E0,0E0,0E0,0E0,0E0,0E0,0E0,0E0,0E0,0E0,0E0,0E0,0E0,0E0,0E0,0E0,0E0,0E0,0E0,0E0,0E0,0E0,0E0,0E0,0E0,0E0],"parents":[2147483647,0,0,1,1,2,2,3,3,4,4,5,5,6,6,7,7,8,8,9,9,10,10,11,11,12,12,13,13,14,14,15,15,16,16,17,17,18,18,19,19,20,20,21,21,22,22,23,23,24,24,25,25,27,27,28,28,29,29,30,30],"right_children":[2,4,6,8,10,12,14,16,18,20,22,24,26,28,30,32,34,36,38,40,42,44,46,48,50,52,-1,54,56,58,60,-1,-1,-1,-1,-1,-1,-1,-1,-1,-1,-1,-1,-1,-1,-1,-1,-1,-1,-1,-1,-1,-1,-1,-1,-1,-1,-1,-1,-1,-1],"split_conditions":[7E0,3E0,8.094E1,2.029E1,6E0,1.3E1,1.1E1,2E0,2E0,8.513E1,2.684E1,1.1E1,2.861E1,2.559E1,1.3E1,1.308E1,1.308E1,2.257E1,7.72E1,4E0,4E0,8.582E1,7.72E1,7.578E1,2.861E1,8.027E1,-1.0543579E-2,9E0,2.684E1,1.2E1,8.836E1,3.360119E-2,-1.3935967E-2,1.04168765E-1,6.397871E-2,-7.0095435E-2,-1.5082933E-1,1.0558724E-2,-4.029929E-2,1.03113286E-1,1.4370577E-1,4.3741625E-2,9.4967596E-2,1.9938348E-2,-3.1372335E-2,1.228202E-1,7.821199E-2,-5.147761E-2,-9.613032E-3,-5.435158E-2,-1.5626974E-1,2.744407E-2,1.2612628E-2,-7.739739E-2,-5.1923048E-2,-3.5661917E-2,-2.7013088E-2,-9.436753E-2,-1.471388E-1,-2.1765074E-2,-4.271884E-2],"split_indices":[2,2,1,0,2,2,2,2,2,1,0,2,0,0,2,0,0,0,1,2,2,1,1,1,0,1,0,2,0,2,1,0,0,0,0,0,0,0,0,0,0,0,0,0,0,0,0,0,0,0,0,0,0,0,0,0,0,0,0,0,0],"split_type":[0,0,0,0,0,0,0,0,0,0,0,0,0,0,0,0,0,0,0,0,0,0,0,0,0,0,0,0,0,0,0,0,0,0,0,0,0,0,0,0,0,0,0,0,0,0,0,0,0,0,0,0,0,0,0,0,0,0,0,0,0],"sum_hessian":[2.496E3,1.149E3,1.347E3,3.89E2,7.6E2,8.27E2,5.2E2,1.6E2,2.29E2,5.7E2,1.9E2,7.1E2,1.17E2,2.98E2,2.22E2,8.2E1,7.8E1,1.12E2,1.17E2,3.96E2,1.74E2,1.3E2,6E1,4.69E2,2.41E2,1.01E2,1.6E1,1.46E2,1.52E2,1.55E2,6.7E1,2E1,6.2E1,1.9E1,5.9E1,1.7E1,9.5E1,1.9E1,9.8E1,1.31E2,2.65E2,6.1E1,1.13E2,9.2E1,3.8E1,2E1,4E1,7.6E1,3.93E2,2.03E2,3.8E1,8E1,2.1E1,7.5E1,7.1E1,7.2E1,8E1,7.4E1,8.1E1,5E1,1.7E1],"tree_param":{"num_deleted":"0","num_feature":"3","num_nodes":"61","size_leaf_vector":"1"}},{"base_weights":[-1.802305E-4,4.545276E-1,-3.880985E-1,-3.1793106E-1,8.498027E-1,-2.4607885E-1,-6.130585E-1,3.2258153E-1,-7.6490754E-1,1.0311038E0,3.0334842E-1,-3.159967E-1,1.7729136E-1,-4.3444932E-1,-8.4978986E-1,-1.8450605E-2,6.767978E-1,-1.2556895E0,-2.8843915E-1,1.1757606E0,6.970475E-1,4.3246347E-2,8.569554E-1,-1.4855936E-1,-6.3987917E-1,2.2102055E-1,-9.551264E-3,-5.8989966E-1,-2.822555E-1,-1.105949E0,-2.4963374E-1,3.040107E-2,-1.2564483E-2,9.427272E-2,5.7687473E-2,-8.399709E-2,-1.4314611E-1,9.555657E-3,-3.6310054E-2,1.4466141E-1,1.0601765E-1,3.9438006E-2,8.555417E-2,1.796594E-2,-2.831552E-2,1.1112302E-1,7.058158E-2,-2.9458517E-2,-4.9771264E-4,-4.021236E-2,-1.1253481E-1,3.3638515E-2,1.92295E-2,-6.9759496E-2,-4.6802834E-2,-2.5583802E-2,-3.52916E-2,-8.387854E-2,-1.3308184E-1,-1.9631227E-2,-3.8684275E-2],"categories":[],"categories_nodes":[],"categories_segments":[],"categories_sizes":[],"default_left":[0,0,0,0,0,0,0,0,0,0,0,0,0,0,0,0,0,0,0,0,0,0,0,0,0,0,0,0,0,0,0,0,0,0,0,0,0,0,0,0,0,0,0,0,0,0,0,0,0,0,0,0,0,0,0,0,0,0,0,0,0],"id":2,"left_children":[1,3,5,7,9,11,13,15,17,19,21,23,25,27,29,31,33,35,37,39,41,43,45,47,49,51,-1,53,55,57,59,-1,-1,-1,-1,-1,-1,-1,-1,-1,-1,-1,-1,-1,-1,-1,-1,-1,-1,-1,-1,-1,-1,-1,-1,-1,-1,-1,-1,-1,-1],"loss_changes":[4.4062088E2,3.5140387E2,4.2916046E1,1.1190144E2,7.5081604E1,2.4565765E1,2.1659943E1,1.946115E1,5.342148E1,2.6773193E1,2.7465857E1,3.8462494E1,1.4287903E0,6.9074173E0,3.4006927E1,2.9071746E0,1.5553894E0,7.0546875E0,3.417714E0,1.08949585E1,8.057518E0,5.883703E0,1.559967E0,9.852887E0,2.747982E1,2.7333403E-1,0E0,1.6028748E0,1.9531155E-1,8.255722E0,4.2155886E-1,0E0,0E0,0E0,0E0,0E0,0E0,0E0,0E0,0E0,0E0,0E0,0E0,0E0,0E0,0E0,0E0,0E0,0E0,0E0,0E0,0E0,0E0,0E0,0E0,0E0,0E0,0E0,0E0,0E0,0E0],"parents":[2147483647,0,0,1,1,2,2,3,3,4,4,5,5,6,6,7,7,8,8,9,9,10,10,11,11,12,12,13,13,14,14,15,15,16,16,17,17,18,18,19,19,20,20,21,21,22,22,23,23,24,24,25,25,27,27,28,28,29,29,30,30],"right_children":[2,4,6,8,10,12,14,16,18,20,22,24,26,28,30,32,34,36,38,40,42,44,46,48,50,52,-1,54,56,58,60,-1,-1,-1,-1,-1,-1,-1,-1,-1,-1,-1,-1,-1,-1,-1,-1,-1,-1,-1,-1,-1,-1,-1,-1,-1,-1,-1,-1,-1,-1],"split_conditions":[7E0,3E0,8.094E1,2.029E1,6E0,1.3E1,1.1E1,2E0,2E0,8.513E1,2.684E1,1.1E1,2.861E1,2.559E1,1.3E1,1.308E1,1.308E1,2.559E1,7.72E1,7.72E1,4E0,8.582E1,7.72E1,9E0,2.029E1,1.308E1,-9.551264E-3,9E0,1E1,2.559E1,8.836E1,3.040107E-2,-1.2564483E-2,9.427272E-2,5.7687473E-2,-8.399709E-2,-1.4314611E-1,9.555657E-3,-3.6310054E-2,1.4466141E-1,1.0601765E-1,3.9438006E-2,8.555417E-2,1.796594E-2,-2.831552E-2,1.1112302E-1,7.058158E-2,-2.9458517E-2,-4.9771264E-4,-4.021236E-2,-1.1253481E-1,3.3638515E-2,1.92295E-2,-6.9759496E-2,-4.6802834E-2,-2.5583802E-2,-3.52916E-2,-8.387854E-2,-1.3308184E-1,-1.9631227E-2,-3.8684275E-2],"split_indices":[2,2,1,0,2,2,2,2,2,1,0,2,0,0,2,0,0,0,1,1,2,1,1,2,0,0,0,2,2,0,1,0,0,0,0,0,0,0,0,0,0,0,0,0,0,0,0,0,0,0,0,0,0,0,0,0,0,0,0,0,0],"split_type":[0,0,0,0,0,0,0,0,0,0,0,0,0,0,0,0,0,0,0,0,0,0,0,0,0,0,0,0,0,0,0,0,0,0,0,0,0,0,0,0,0,0,0,0,0,0,0,0,0,0,0,0,0,0,0,0,0,0,0,0,0],"sum_hessian":[2.496E3,1.149E3,1.347E3,3.89E2,7.6E2,8.27E2,5.2E2,1.6E2,2.29E2,5.7E2,1.9E2,7.1E2,1.17E2,2.98E2,2.22E2,8.2E1,7.8E1,1.12E2,1.17E2,3.96E2,1.74E2,1.3E2,6E1,4.69E2,2.41E2,1.01E2,1.6E1,1.46E2,1.52E2,1.55E2,6.7E1,2E1,6.2E1,1.9E1,5.9E1,3.5E1,7.7E1,1.9E1,9.8E1,1.15E2,2.81E2,6.1E1,1.13E2,9.2E1,3.8E1,2E1,4E1,2.32E2,2.37E2,1.63E2,7.8E1,1.8E1,8.3E1,7.5E1,7.1E1,1.14E2,3.8E1,7.3E1,8.2E1,5E1,1.7E1],"tree_param":{"num_deleted":"0","num_feature":"3","num_nodes":"61","size_leaf_vector":"1"}},{"base_weights":[-2.1389632E-4,4.0947744E-1,-3.4972787E-1,-2.8635353E-1,7.655413E-1,-2.2163929E-1,-5.5262154E-1,1.9900498E-1,-7.7273256E-1,9.2865145E-1,2.7391085E-1,-2.84654E-1,1.5992935E-1,-3.9159784E-1,-7.660452E-1,-1.1358016E-1,5.192061E-1,-1.2284706E0,-3.2749677E-1,1.0588161E0,6.280571E-1,3.884282E-2,7.742387E-1,-1.3376711E-1,-5.765225E-1,1.9943687E-1,-8.6523425E-3,-5.3170264E-1,-2.5442785E-1,-9.967448E-1,-2.2552781E-1,-1.6390553E-3,-5.5542227E-2,6.1104175E-2,1.1003655E-2,-5.595941E-2,-1.3862506E-1,8.647854E-3,-4.2566974E-2,8.1187606E-2,1.17737725E-1,3.5557836E-2,7.7073805E-2,1.618868E-2,-2.555657E-2,1.0053986E-1,6.369559E-2,-4.503119E-2,-7.1564787E-3,-4.3523446E-2,-1.3007854E-1,2.2514163E-2,9.573141E-3,-6.2875345E-2,-4.2187538E-2,-2.148035E-2,-2.927732E-2,-7.40908E-2,-1.2185865E-1,-1.770658E-2,-3.5030752E-2],"categories":[],"categories_nodes":[],"categories_segments":[],"categories_sizes":[],"default_left":[0,0,0,0,0,0,0,0,0,0,0,0,0,0,0,0,0,0,0,0,0,0,0,0,0,0,0,0,0,0,0,0,0,0,0,0,0,0,0,0,0,0,0,0,0,0,0,0,0,0,0,0,0,0,0,0,0,0,0,0,0],"id":3,"left_children":[1,3,5,7,9,11,13,15,17,19,21,23,25,27,29,31,33,35,37,39,41,43,45,47,49,51,-1,53,55,57,59,-1,-1,-1,-1,-1,-1,-1,-1,-1,-1,-1,-1,-1,-1,-1,-1,-1,-1,-1,-1,-1,-1,-1,-1,-1,-1,-1,-1,-1,-1],"loss_changes":[3.5769574E2,2.851435E2,3.4909836E1,9.222037E1,6.0770172E1,1.9954319E1,1.7604843E1,1.9676634E1,3.9165306E1,2.1676422E1,2.243364E1,3.1234707E1,1.1661913E0,5.6109543E0,2.7582672E1,4.285142E0,3.5776672E0,9.355652E0,4.1009293E0,1.0667236E1,6.529518E0,4.786873E0,1.2953987E0,9.22199E0,2.419764E1,2.5035095E-1,0E0,1.30159E0,1.6958141E-1,7.9509583E0,3.4917378E-1,0E0,0E0,0E0,0E0,0E0,0E0,0E0,0E0,0E0,0E0,0E0,0E0,0E0,0E0,0E0,0E0,0E0,0E0,0E0,0E0,0E0,0E0,0E0,0E0,0E0,0E0,0E0,0E0,0E0,0E0],"parents":[2147483647,0,0,1,1,2,2,3,3,4,4,5,5,6,6,7,7,8,8,9,9,10,10,11,11,12,12,13,13,14,14,15,15,16,16,17,17,18,18,19,19,20,20,21,21,22,22,23,23,24,24,25,25,27,27,28,28,29,29,30,30],"right_children":[2,4,6,8,10,12,14,16,18,20,22,24,26,28,30,32,34,36,38,40,42,44,46,48,50,52,-1,54,56,58,60,-1,-1,-1,-1,-1,-1,-1,-1,-1,-1,-1,-1,-1,-1,-1,-1,-1,-1,-1,-1,-1,-1,-1,-1,-1,-1,-1,-1,-1,-1],"split_conditions":[7E0,3E0,8.094E1,2.257E1,6E0,1.3E1,1.1E1,2E0,2E0,8.513E1,2.684E1,1.1E1,2.861E1,2.559E1,1.3E1,2.029E1,2.029E1,7.72E1,7.72E1,4E0,4E0,8.582E1,7.72E1,7.578E1,2.861E1,8.027E1,-8.6523425E-3,9E0,9E0,1.2E1,8.836E1,-1.6390553E-3,-5.5542227E-2,6.1104175E-2,1.1003655E-2,-5.595941E-2,-1.3862506E-1,8.647854E-3,-4.2566974E-2,8.1187606E-2,1.17737725E-1,3.5557836E-2,7.7073805E-2,1.618868E-2,-2.555657E-2,1.0053986E-1,6.369559E-2,-4.503119E-2,-7.1564787E-3,-4.3523446E-2,-1.3007854E-1,2.2514163E-2,9.573141E-3,-6.2875345E-2,-4.2187538E-2,-2.148035E-2,-2.927732E-2,-7.40908E-2,-1.2185865E-1,-1.770658E-2,-3.5030752E-2],"split_indices":[2,2,1,0,2,2,2,2,2,1,0,2,0,0,2,0,0,1,1,2,2,1,1,1,0,1,0,2,2,2,1,0,0,0,0,0,0,0,0,0,0,0,0,0,0,0,0,0,0,0,0,0,0,0,0,0,0,0,0,0,0],"split_type":[0,0,0,0,0,0,0,0,0,0,0,0,0,0,0,0,0,0,0,0,0,0,0,0,0,0,0,0,0,0,0,0,0,0,0,0,0,0,0,0,0,0,0,0,0,0,0,0,0,0,0,0,0,0,0,0,0,0,0,0,0],"sum_hessian":[2.496E3,1.149E3,1.347E3,3.89E2,7.6E2,8.27E2,5.2E2,1.95E2,1.94E2,5.7E2,1.9E2,7.1E2,1.17E2,2.98E2,2.22E2,9.9E1,9.6E1,9.5E1,9.9E1,3.96E2,1.74E2,1.3E2,6E1,4.69E2,2.41E2,1.01E2,1.6E1,1.46E2,1.52E2,1.55E2,6.7E1,8.2E1,1.7E1,7.8E1,1.8E1,1.9E1,7.6E1,1.9E1,8E1,1.31E2,2.65E2,6.1E1,1.13E2,9.2E1,3.8E1,2E1,4E1,7.6E1,3.93E2,2.03E2,3.8E1,8E1,2.1E1,7.5E1,7.1E1,7.8E1,7.4E1,7.4E1,8.1E1,5E1,1.7E1],"tree_param":{"num_deleted":"0","num_feature":"3","num_nodes":"61","size_leaf_vector":"1"}},{"base_weights":[-3.3432167E-4,3.6874956E-1,-3.1520534E-1,-2.5826588E-1,6.896001E-1,-1.9971988E-1,-4.9813578E-1,1.791805E-1,-6.966312E-1,8.363319E-1,2.4733065E-1,-2.565063E-1,1.4413491E-1,-3.5295913E-1,-6.905559E-1,-1.0279413E-1,4.6802878E-1,-1.1076504E0,-2.9508644E-1,1.1990803E0,7.4221975E-1,3.4887064E-2,6.9950736E-1,-1.2050154E-1,-5.195878E-1,1.7980766E-1,-7.838017E-3,-4.7924706E-1,-2.2931671E-1,-8.983264E-1,-2.037507E-1,2.7661799E-2,-2.011049E-2,5.5071093E-2,9.961219E-3,-5.0643284E-2,-1.2494256E-1,7.826302E-3,-3.8362846E-2,7.869311E-2,1.4056467E-1,8.051141E-2,3.2175433E-2,1.45872235E-2,-2.3066444E-2,9.096466E-2,5.7481397E-2,-2.524381E-2,9.1695366E-4,-3.919245E-2,-1.1740422E-1,2.8318772E-2,1.5428351E-2,-5.6670547E-2,-3.8027365E-2,-2.687615E-2,-1.9093666E-2,-4.8376825E-2,-1.0142418E-1,-1.597066E-2,-3.1722285E-2],"categories":[],"categories_nodes":[],"categories_segments":[],"categories_sizes":[],"default_left":[0,0,0,0,0,0,0,0,0,0,0,0,0,0,0,0,0,0,0,0,0,0,0,0,0,0,0,0,0,0,0,0,0,0,0,0,0,0,0,0,0,0,0,0,0,0,0,0,0,0,0,0,0,0,0,0,0,0,0,0,0],"id":4,"left_children":[1,3,5,7,9,11,13,15,17,19,21,23,25,27,29,31,33,35,37,39,41,43,45,47,49,51,-1,53,55,57,59,-1,-1,-1,-1,-1,-1,-1,-1,-1,-1,-1,-1,-1,-1,-1,-1,-1,-1,-1,-1,-1,-1,-1,-1,-1,-1,-1,-1,-1,-1],"loss_changes":[2.9030212E2,2.315331E2,2.8378098E1,7.4911736E1,4.9178223E1,1.6204735E1,1.43103485E1,1.6011898E1,3.1856453E1,1.8603424E1,1.8323446E1,2.5377205E1,9.5074487E-1,4.5588493E0,2.2372032E1,3.7856584E0,2.8999043E0,7.550087E0,3.3357353E0,8.769653E0,1.179982E1,3.894516E0,1.0755043E0,8.0432415E0,1.9758919E1,2.2545505E-1,0E0,1.0569344E0,1.803093E-1,7.005722E0,2.8918624E-1,0E0,0E0,0E0,0E0,0E0,0E0,0E0,0E0,0E0,0E0,0E0,0E0,0E0,0E0,0E0,0E0,0E0,0E0,0E0,0E0,0E0,0E0,0E0,0E0,0E0,0E0,0E0,0E0,0E0,0E0],"parents":[2147483647,0,0,1,1,2,2,3,3,4,4,5,5,6,6,7,7,8,8,9,9,10,10,11,11,12,12,13,13,14,14,15,15,16,16,17,17,18,18,19,19,20,20,21,21,22,22,23,23,24,24,25,25,27,27,28,28,29,29,30,30],"right_children":[2,4,6,8,10,12,14,16,18,20,22,24,26,28,30,32,34,36,38,40,42,44,46,48,50,52,-1,54,56,58,60,-1,-1,-1,-1,-1,-1,-1,-1,-1,-1,-1,-1,-1,-1,-1,-1,-1,-1,-1,-1,-1,-1,-1,-1,-1,-1,-1,-1,-1,-1],"split_conditions":[7E0,3E0,8.094E1,2.257E1,6E0,1.3E1,1.1E1,2E0,2E0,7.72E1,2.684E1,1.1E1,2.861E1,2.559E1,1.3E1,1.308E1,2.029E1,7.72E1,7.72E1,4E0,8.836E1,8.582E1,7.72E1,9E0,2.861E1,1.308E1,-7.838017E-3,9E0,2.684E1,2.257E1,8.836E1,2.7661799E-2,-2.011049E-2,5.5071093E-2,9.961219E-3,-5.0643284E-2,-1.2494256E-1,7.826302E-3,-3.8362846E-2,7.869311E-2,1.4056467E-1,8.051141E-2,3.2175433E-2,1.45872235E-2,-2.3066444E-2,9.096466E-2,5.7481397E-2,-2.524381E-2,9.1695366E-4,-3.919245E-2,-1.1740422E-1,2.8318772E-2,1.5428351E-2,-5.6670547E-2,-3.8027365E-2,-2.687615E-2,-1.9093666E-2,-4.8376825E-2,-1.0142418E-1,-1.597066E-2,-3.1722285E-2],"split_indices":[2,2,1,0,2,2,2,2,2,1,0,2,0,0,2,0,0,1,1,2,1,1,1,2,0,0,0,2,0,0,1,0,0,0,0,0,0,0,0,0,0,0,0,0,0,0,0,0,0,0,0,0,0,0,0,0,0,0,0,0,0],"split_type":[0,0,0,0,0,0,0,0,0,0,0,0,0,0,0,0,0,0,0,0,0,0,0,0,0,0,0,0,0,0,0,0,0,0,0,0,0,0,0,0,0,0,0,0,0,0,0,0,0,0,0,0,0,0,0,0,0,0,0,0,0],"sum_hessian":[2.496E3,1.149E3,1.347E3,3.89E2,7.6E2,8.27E2,5.2E2,1.95E2,1.94E2,5.7E2,1.9E2,7.1E2,1.17E2,2.98E2,2.22E2,9.9E1,9.6E1,9.5E1,9.9E1,1.15E2,4.55E2,1.3E2,6E1,4.69E2,2.41E2,1.01E2,1.6E1,1.46E2,1.52E2,1.55E2,6.7E1,2E1,7.9E1,7.8E1,1.8E1,1.9E1,7.6E1,1.9E1,8E1,4E1,7.5E1,3.95E2,6E1,9.2E1,3.8E1,2E1,4E1,2.32E2,2.37E2,2.03E2,3.8E1,1.8E1,8.3E1,7.5E1,7.1E1,7.2E1,8E1,3.5E1,1.2E2,5E1,1.7E1],"tree_param":{"num_deleted":"0","num_feature":"3","num_nodes":"61","size_leaf_vector":"1"}},{"base_weights":[-3.588802E-4,3.3216885E-1,-2.8404325E-1,-2.3278157E-1,6.2126017E-1,-1.7992301E-1,-4.4897127E-1,2.4023744E-1,-5.628828E-1,7.5328E-1,2.2333033E-1,-2.3111008E-1,1.3002561E-1,-3.1813374E-1,-6.2238586E-1,-6.4145224E-3,4.9633712E-1,-9.255581E-1,-2.1080488E-1,9.199345E-1,5.8516216E-1,3.133353E-2,6.319902E-1,-1.0850317E-1,-4.6827596E-1,1.6225561E-1,-7.100299E-3,-4.3196654E-1,-2.0668566E-1,-8.0945396E-1,-1.8407701E-1,2.502734E-2,-9.187535E-3,7.428018E-2,4.0590998E-2,-5.9079815E-2,-1.0681965E-1,-1.4676145E-2,-4.8359614E-2,6.805529E-2,1.03792444E-1,6.6187255E-2,2.9010624E-2,9.831193E-3,-3.4531217E-2,8.230134E-2,5.1873464E-2,-2.0264577E-2,7.3439106E-3,-2.7994502E-2,-8.5331395E-2,1.8480264E-2,7.186632E-3,-5.1078048E-2,-3.427745E-2,-1.8422803E-2,-2.6760725E-2,-5.7904977E-2,-1.010318E-1,-1.4404903E-2,-2.872631E-2],"categories":[],"categories_nodes":[],"categories_segments":[],"categories_sizes":[],"default_left":[0,0,0,0,0,0,0,0,0,0,0,0,0,0,0,0,0,0,0,0,0,0,0,0,0,0,0,0,0,0,0,0,0,0,0,0,0,0,0,0,0,0,0,0,0,0,0,0,0,0,0,0,0,0,0,0,0,0,0,0,0],"id":5,"left_children":[1,3,5,7,9,11,13,15,17,19,21,23,25,27,29,31,33,35,37,39,41,43,45,47,49,51,-1,53,55,57,59,-1,-1,-1,-1,-1,-1,-1,-1,-1,-1,-1,-1,-1,-1,-1,-1,-1,-1,-1,-1,-1,-1,-1,-1,-1,-1,-1,-1,-1,-1],"loss_changes":[2.3564363E2,1.8796518E2,2.3067543E1,6.1031445E1,3.981064E1,1.3166573E1,1.1623039E1,1.017315E1,2.9173584E1,1.5459747E1,1.4966322E1,2.0623772E1,7.760608E-1,3.7039642E0,1.8135574E1,1.8437452E0,1.4591713E0,4.764618E0,1.9905443E0,7.3433533E0,6.3039017E0,3.3387017E0,8.927765E-1,8.065285E0,1.7309643E1,1.9459558E-1,0E0,8.5826683E-1,1.6002655E-1,6.6346436E0,2.394824E-1,0E0,0E0,0E0,0E0,0E0,0E0,0E0,0E0,0E0,0E0,0E0,0E0,0E0,0E0,0E0,0E0,0E0,0E0,0E0,0E0,0E0,0E0,0E0,0E0,0E0,0E0,0E0,0E0,0E0,0E0],"parents":[2147483647,0,0,1,1,2,2,3,3,4,4,5,5,6,6,7,7,8,8,9,9,10,10,11,11,12,12,13,13,14,14,15,15,16,16,17,17,18,18,19,19,20,20,21,21,22,22,23,23,24,24,25,25,27,27,28,28,29,29,30,30],"right_children":[2,4,6,8,10,12,14,16,18,20,22,24,26,28,30,32,34,36,38,40,42,44,46,48,50,52,-1,54,56,58,60,-1,-1,-1,-1,-1,-1,-1,-1,-1,-1,-1,-1,-1,-1,-1,-1,-1,-1,-1,-1,-1,-1,-1,-1,-1,-1,-1,-1,-1,-1],"split_conditions":[7E0,3E0,8.094E1,2.029E1,6E0,1.3E1,1.1E1,2E0,2E0,8.027E1,2.684E1,1.1E1,2.861E1,2.559E1,1.3E1,1.308E1,1.308E1,2.559E1,2.861E1,4E0,8.836E1,8.836E1,7.72E1,2.029E1,2.029E1,8.027E1,-7.100299E-3,9E0,1E1,1.2E1,8.836E1,2.502734E-2,-9.187535E-3,7.428018E-2,4.0590998E-2,-5.9079815E-2,-1.0681965E-1,-1.4676145E-2,-4.8359614E-2,6.805529E-2,1.03792444E-1,6.6187255E-2,2.9010624E-2,9.831193E-3,-3.4531217E-2,8.230134E-2,5.1873464E-2,-2.0264577E-2,7.3439106E-3,-2.7994502E-2,-8.5331395E-2,1.8480264E-2,7.186632E-3,-5.1078048E-2,-3.427745E-2,-1.8422803E-2,-2.6760725E-2,-5.7904977E-2,-1.010318E-1,-1.4404903E-2,-2.872631E-2],"split_indices":[2,2,1,0,2,2,2,2,2,1,0,2,0,0,2,0,0,0,0,2,1,1,1,0,0,1,0,2,2,2,1,0,0,0,0,0,0,0,0,0,0,0,0,0,0,0,0,0,0,0,0,0,0,0,0,0,0,0,0,0,0],"split_type":[0,0,0,0,0,0,0,0,0,0,0,0,0,0,0,0,0,0,0,0,0,0,0,0,0,0,0,0,0,0,0,0,0,0,0,0,0,0,0,0,0,0,0,0,0,0,0,0,0,0,0,0,0,0,0,0,0,0,0,0,0],"sum_hessian":[2.496E3,1.149E3,1.347E3,3.89E2,7.6E2,8.27E2,5.2E2,1.6E2,2.29E2,5.7E2,1.9E2,7.1E2,1.17E2,2.98E2,2.22E2,8.2E1,7.8E1,1.12E2,1.17E2,2.84E2,2.86E2,1.3E2,6E1,4.69E2,2.41E2,1.01E2,1.6E1,1.46E2,1.52E2,1.55E2,6.7E1,2E1,6.2E1,1.9E1,5.9E1,3.5E1,7.7E1,9.6E1,2.1E1,9.6E1,1.88E2,2.26E2,6E1,1.11E2,1.9E1,2E1,4E1,3.09E2,1.6E2,1.63E2,7.8E1,8E1,2.1E1,7.5E1,7.1E1,1.14E2,3.8E1,7.4E1,8.1E1,5E1,1.7E1],"tree_param":{"num_deleted":"0","num_feature":"3","num_nodes":"61","size_leaf_vector":"1"}},{"base_weights":[-3.8789585E-4,2.9919386E-1,-2.5596553E-1,-2.0975526E-1,5.596288E-1,-1.6206068E-1,-4.0471262E-1,1.4903821E-1,-5.69313E-1,6.784196E-1,2.015703E-1,-2.0817655E-1,1.1718038E-1,-2.8675708E-1,-5.610534E-1,-8.1704654E-2,3.8538098E-1,-9.0195847E-1,-2.4428023E-1,9.9048805E-1,5.97546E-1,2.8011411E-2,5.709907E-1,-9.768026E-2,-4.2191654E-1,1.462817E-1,-6.4320536E-3,-3.8935062E-1,-1.863126E-1,-7.295273E-1,-1.6630374E-1,-5.5820914E-4,-4.2817514E-2,6.722355E-2,3.0688776E-2,-3.5684288E-2,-1.0318332E-1,8.47703E-3,-3.225115E-2,6.437622E-2,1.1645048E-1,6.477907E-2,2.6157105E-2,1.2171598E-2,-1.9615619E-2,7.4463144E-2,4.681262E-2,-3.74878E-2,-4.3259184E-3,-3.1382404E-2,-9.765052E-2,2.3885166E-2,1.2360182E-2,-4.6037473E-2,-3.0897314E-2,-2.2191329E-2,-1.5192787E-2,-5.017322E-2,-9.238322E-2,-2.0148478E-2,-7.1794987E-3],"categories":[],"categories_nodes":[],"categories_segments":[],"categories_sizes":[],"default_left":[0,0,0,0,0,0,0,0,0,0,0,0,0,0,0,0,0,0,0,0,0,0,0,0,0,0,0,0,0,0,0,0,0,0,0,0,0,0,0,0,0,0,0,0,0,0,0,0,0,0,0,0,0,0,0,0,0,0,0,0,0],"id":6,"left_children":[1,3,5,7,9,11,13,15,17,19,21,23,25,27,29,31,33,35,37,39,41,43,45,47,49,51,-1,53,55,57,59,-1,-1,-1,-1,-1,-1,-1,-1,-1,-1,-1,-1,-1,-1,-1,-1,-1,-1,-1,-1,-1,-1,-1,-1,-1,-1,-1,-1,-1,-1],"loss_changes":[1.9126286E2,1.5254771E2,1.8763374E1,5.0397568E1,3.2231644E1,1.0686918E1,9.447014E0,1.0720232E1,2.0863205E1,1.3819122E1,1.2230197E1,1.6750814E1,6.326752E-1,3.0086422E0,1.470929E1,2.635032E0,1.9777641E0,6.4282837E0,2.6015425E0,6.2493286E0,7.5282745E0,2.7755992E0,7.409687E-1,7.073921E0,1.4200695E1,1.846242E-1,0E0,6.969414E-1,1.5357494E-1,6.441307E0,2.1162891E-1,0E0,0E0,0E0,0E0,0E0,0E0,0E0,0E0,0E0,0E0,0E0,0E0,0E0,0E0,0E0,0E0,0E0,0E0,0E0,0E0,0E0,0E0,0E0,0E0,0E0,0E0,0E0,0E0,0E0,0E0],"parents":[2147483647,0,0,1,1,2,2,3,3,4,4,5,5,6,6,7,7,8,8,9,9,10,10,11,11,12,12,13,13,14,14,15,15,16,16,17,17,18,18,19,19,20,20,21,21,22,22,23,23,24,24,25,25,27,27,28,28,29,29,30,30],"right_children":[2,4,6,8,10,12,14,16,18,20,22,24,26,28,30,32,34,36,38,40,42,44,46,48,50,52,-1,54,56,58,60,-1,-1,-1,-1,-1,-1,-1,-1,-1,-1,-1,-1,-1,-1,-1,-1,-1,-1,-1,-1,-1,-1,-1,-1,-1,-1,-1,-1,-1,-1],"split_conditions":[7E0,3E0,8.094E1,2.257E1,6E0,1.3E1,1.1E1,2E0,2E0,7.72E1,2.684E1,1.1E1,2.861E1,2.559E1,1.3E1,2.029E1,1.308E1,7.72E1,7.72E1,4E0,8.836E1,8.582E1,7.72E1,7.578E1,2.861E1,1.308E1,-6.4320536E-3,9E0,2.684E1,2.559E1,2.684E1,-5.5820914E-4,-4.2817514E-2,6.722355E-2,3.0688776E-2,-3.5684288E-2,-1.0318332E-1,8.47703E-3,-3.225115E-2,6.437622E-2,1.1645048E-1,6.477907E-2,2.6157105E-2,1.2171598E-2,-1.9615619E-2,7.4463144E-2,4.681262E-2,-3.74878E-2,-4.3259184E-3,-3.1382404E-2,-9.765052E-2,2.3885166E-2,1.2360182E-2,-4.6037473E-2,-3.0897314E-2,-2.2191329E-2,-1.5192787E-2,-5.017322E-2,-9.238322E-2,-2.0148478E-2,-7.1794987E-3],"split_indices":[2,2,1,0,2,2,2,2,2,1,0,2,0,0,2,0,0,1,1,2,1,1,1,1,0,0,0,2,0,0,0,0,0,0,0,0,0,0,0,0,0,0,0,0,0,0,0,0,0,0,0,0,0,0,0,0,0,0,0,0,0],"split_type":[0,0,0,0,0,0,0,0,0,0,0,0,0,0,0,0,0,0,0,0,0,0,0,0,0,0,0,0,0,0,0,0,0,0,0,0,0,0,0,0,0,0,0,0,0,0,0,0,0,0,0,0,0,0,0,0,0,0,0,0,0],"sum_hessian":[2.496E3,1.149E3,1.347E3,3.89E2,7.6E2,8.27E2,5.2E2,1.95E2,1.94E2,5.7E2,1.9E2,7.1E2,1.17E2,2.98E2,2.22E2,9.9E1,9.6E1,9.5E1,9.9E1,1.15E2,4.55E2,1.3E2,6E1,4.69E2,2.41E2,1.01E2,1.6E1,1.46E2,1.52E2,1.55E2,6.7E1,8.2E1,1.7E1,1.9E1,7.7E1,1.9E1,7.6E1,1.9E1,8E1,4E1,7.5E1,3.95E2,6E1,9.2E1,3.8E1,2E1,4E1,7.6E1,3.93E2,2.03E2,3.8E1,1.8E1,8.3E1,7.5E1,7.1E1,7.2E1,8E1,7.3E1,8.2E1,4.8E1,1.9E1],"tree_param":{"num_deleted":"0","num_feature":"3","num_nodes":"61","size_leaf_vector":"1"}},{"base_weights":[-4.0826714E-4,2.6951572E-1,-2.3068437E-1,-1.8905686E-1,5.041725E-1,-1.460249E-1,-3.6478677E-1,1.3441272E-1,-5.132157E-1,6.110534E-1,1.8200918E-1,-1.8759915E-1,1.05715044E-1,-2.5846362E-1,-5.057098E-1,-7.39678E-2,3.478523E-1,-8.1320924E-1,-2.2008982E-1,4.051675E-1,7.1428543E-1,2.5153352E-2,5.1587975E-1,-8.800122E-2,-3.8025796E-1,1.3200894E-1,-5.8266837E-3,-3.5093892E-1,-1.6792548E-1,-6.574882E-1,-1.5007532E-1,2.269697E-2,-1.52039295E-2,6.0837317E-2,2.7659243E-2,-3.22943E-2,-9.2999E-2,7.6716947E-3,-2.906583E-2,7.19001E-2,1.8137934E-2,9.807368E-2,6.0026743E-2,8.189771E-3,-2.9387271E-2,6.737139E-2,4.224554E-2,-2.0755254E-2,2.9408275E-3,-2.2092989E-2,-7.062016E-2,2.1622352E-2,1.1138886E-2,-4.149428E-2,-2.7850512E-2,-1.3463019E-2,-2.0075753E-2,-4.4933748E-2,-8.3985195E-2,-1.1500492E-2,-2.4110397E-2],"categories":[],"categories_nodes":[],"categories_segments":[],"categories_sizes":[],"default_left":[0,0,0,0,0,0,0,0,0,0,0,0,0,0,0,0,0,0,0,0,0,0,0,0,0,0,0,0,0,0,0,0,0,0,0,0,0,0,0,0,0,0,0,0,0,0,0,0,0,0,0,0,0,0,0,0,0,0,0,0,0],"id":7,"left_children":[1,3,5,7,9,11,13,15,17,19,21,23,25,27,29,31,33,35,37,39,41,43,45,47,49,51,-1,53,55,57,59,-1,-1,-1,-1,-1,-1,-1,-1,-1,-1,-1,-1,-1,-1,-1,-1,-1,-1,-1,-1,-1,-1,-1,-1,-1,-1,-1,-1,-1,-1],"loss_changes":[1.5526833E2,1.23843544E2,1.5250633E1,4.096264E1,2.6092392E1,8.685596E0,7.6756363E0,8.743155E0,1.6968517E1,1.1846634E1,9.989605E0,1.3609505E1,5.164751E-1,2.444456E0,1.1938351E1,2.3839726E0,1.6325016E0,5.196022E0,2.116818E0,1.3424406E1,1.092543E1,2.3955512E0,6.1486435E-1,6.603239E0,1.2411514E1,1.5303898E-1,0E0,5.6593513E-1,1.4022446E-1,5.544243E0,1.8935585E-1,0E0,0E0,0E0,0E0,0E0,0E0,0E0,0E0,0E0,0E0,0E0,0E0,0E0,0E0,0E0,0E0,0E0,0E0,0E0,0E0,0E0,0E0,0E0,0E0,0E0,0E0,0E0,0E0,0E0,0E0],"parents":[2147483647,0,0,1,1,2,2,3,3,4,4,5,5,6,6,7,7,8,8,9,9,10,10,11,11,12,12,13,13,14,14,15,15,16,16,17,17,18,18,19,19,20,20,21,21,22,22,23,23,24,24,25,25,27,27,28,28,29,29,30,30],"right_children":[2,4,6,8,10,12,14,16,18,20,22,24,26,28,30,32,34,36,38,40,42,44,46,48,50,52,-1,54,56,58,60,-1,-1,-1,-1,-1,-1,-1,-1,-1,-1,-1,-1,-1,-1,-1,-1,-1,-1,-1,-1,-1,-1,-1,-1,-1,-1,-1,-1,-1,-1],"split_conditions":[7E0,3E0,8.094E1,2.257E1,6E0,1.3E1,1.1E1,2E0,2E0,4E0,2.684E1,1.1E1,2.861E1,2.559E1,1.3E1,1.308E1,1.308E1,7.72E1,7.72E1,2.029E1,7.759E1,8.836E1,7.72E1,9E0,2.029E1,1.308E1,-5.8266837E-3,9E0,9E0,1.2E1,8.836E1,2.269697E-2,-1.52039295E-2,6.0837317E-2,2.7659243E-2,-3.22943E-2,-9.2999E-2,7.6716947E-3,-2.906583E-2,7.19001E-2,1.8137934E-2,9.807368E-2,6.0026743E-2,8.189771E-3,-2.9387271E-2,6.737139E-2,4.224554E-2,-2.0755254E-2,2.9408275E-3,-2.2092989E-2,-7.062016E-2,2.1622352E-2,1.1138886E-2,-4.149428E-2,-2.7850512E-2,-1.3463019E-2,-2.0075753E-2,-4.4933748E-2,-8.3985195E-2,-1.1500492E-2,-2.4110397E-2],"split_indices":[2,2,1,0,2,2,2,2,2,2,0,2,0,0,2,0,0,1,1,0,1,1,1,2,0,0,0,2,2,2,1,0,0,0,0,0,0,0,0,0,0,0,0,0,0,0,0,0,0,0,0,0,0,0,0,0,0,0,0,0,0],"split_type":[0,0,0,0,0,0,0,0,0,0,0,0,0,0,0,0,0,0,0,0,0,0,0,0,0,0,0,0,0,0,0,0,0,0,0,0,0,0,0,0,0,0,0,0,0,0,0,0,0,0,0,0,0,0,0,0,0,0,0,0,0],"sum_hessian":[2.496E3,1.149E3,1.347E3,3.89E2,7.6E2,8.27E2,5.2E2,1.95E2,1.94E2,5.7E2,1.9E2,7.1E2,1.17E2,2.98E2,2.22E2,9.9E1,9.6E1,9.5E1,9.9E1,1.92E2,3.78E2,1.3E2,6E1,4.69E2,2.41E2,1.01E2,1.6E1,1.46E2,1.52E2,1.55E2,6.7E1,2E1,7.9E1,1.9E1,7.7E1,1.9E1,7.6E1,1.9E1,8E1,7.9E1,1.13E2,1.11E2,2.67E2,1.11E2,1.9E1,2E1,4E1,2.32E2,2.37E2,1.63E2,7.8E1,1.8E1,8.3E1,7.5E1,7.1E1,7.8E1,7.4E1,7.4E1,8.1E1,5E1,1.7E1],"tree_param":{"num_deleted":"0","num_feature":"3","num_nodes":"61","size_leaf_vector":"1"}},{"base_weights":[-3.9349453E-4,2.4281278E-1,-2.078763E-1,-1.7028125E-1,4.5419762E-1,-1.3152336E-1,-3.2882133E-1,1.8385053E-1,-4.1743314E-1,5.503828E-1,1.642713E-1,-1.6899467E-1,9.5371775E-2,-2.3296128E-1,-4.5587662E-1,8.5757725E-4,3.737817E-1,-6.82366E-1,-1.6018869E-1,8.149917E-1,4.81863E-1,2.2476312E-2,4.6608886E-1,-7.923889E-2,-3.4261543E-1,1.1912924E-1,-5.27831E-3,-3.1631666E-1,-1.5135212E-1,-5.925657E-1,-1.355916E-1,2.0535354E-2,-6.7321355E-3,5.5057775E-2,3.0862002E-2,-4.0786944E-2,-8.003085E-2,-1.0893147E-2,-3.789051E-2,5.3965766E-2,9.528037E-2,3.159587E-2,5.637758E-2,1.01573495E-2,-1.6671637E-2,6.0955066E-2,3.812404E-2,-1.6146993E-2,7.958631E-3,-2.5109563E-2,-8.125492E-2,1.3845083E-2,4.2575686E-3,-3.739944E-2,-2.5104133E-2,-1.8357664E-2,-1.2044172E-2,-3.8680144E-2,-7.68879E-2,-1.6610717E-2,-5.4048896E-3],"categories":[],"categories_nodes":[],"categories_segments":[],"categories_sizes":[],"default_left":[0,0,0,0,0,0,0,0,0,0,0,0,0,0,0,0,0,0,0,0,0,0,0,0,0,0,0,0,0,0,0,0,0,0,0,0,0,0,0,0,0,0,0,0,0,0,0,0,0,0,0,0,0,0,0,0,0,0,0,0,0],"id":8,"left_children":[1,3,5,7,9,11,13,15,17,19,21,23,25,27,29,31,33,35,37,39,41,43,45,47,49,51,-1,53,55,57,59,-1,-1,-1,-1,-1,-1,-1,-1,-1,-1,-1,-1,-1,-1,-1,-1,-1,-1,-1,-1,-1,-1,-1,-1,-1,-1,-1,-1,-1,-1],"loss_changes":[1.2605189E2,1.0049743E2,1.2404873E1,3.4211235E1,2.1131287E1,7.0558214E0,6.2393303E0,5.595406E0,1.5565765E1,9.960068E0,8.163601E0,1.1052694E1,4.216224E-1,1.9860916E0,9.68248E0,1.1710368E0,7.4018574E-1,3.331932E0,1.2815988E0,3.887352E0,6.0187607E0,1.9772974E0,5.101385E-1,6.1512184E0,1.0203966E1,1.4497733E-1,0E0,4.5955753E-1,1.3028884E-1,5.362114E0,1.602279E-1,0E0,0E0,0E0,0E0,0E0,0E0,0E0,0E0,0E0,0E0,0E0,0E0,0E0,0E0,0E0,0E0,0E0,0E0,0E0,0E0,0E0,0E0,0E0,0E0,0E0,0E0,0E0,0E0,0E0,0E0],"parents":[2147483647,0,0,1,1,2,2,3,3,4,4,5,5,6,6,7,7,8,8,9,9,10,10,11,11,12,12,13,13,14,14,15,15,16,16,17,17,18,18,19,19,20,20,21,21,22,22,23,23,24,24,25,25,27,27,28,28,29,29,30,30],"right_children":[2,4,6,8,10,12,14,16,18,20,22,24,26,28,30,32,34,36,38,40,42,44,46,48,50,52,-1,54,56,58,60,-1,-1,-1,-1,-1,-1,-1,-1,-1,-1,-1,-1,-1,-1,-1,-1,-1,-1,-1,-1,-1,-1,-1,-1,-1,-1,-1,-1,-1,-1],"split_conditions":[7E0,3E0,8.094E1,2.029E1,6E0,1.3E1,1.1E1,2E0,2E0,7.72E1,2.684E1,1.1E1,2.861E1,2.559E1,1.3E1,1.308E1,1.308E1,2.559E1,2.861E1,4E0,4E0,8.582E1,7.72E1,2.029E1,2.861E1,8.027E1,-5.27831E-3,9E0,2.684E1,2.559E1,2.684E1,2.0535354E-2,-6.7321355E-3,5.5057775E-2,3.0862002E-2,-4.0786944E-2,-8.003085E-2,-1.0893147E-2,-3.789051E-2,5.3965766E-2,9.528037E-2,3.159587E-2,5.637758E-2,1.01573495E-2,-1.6671637E-2,6.0955066E-2,3.812404E-2,-1.6146993E-2,7.958631E-3,-2.5109563E-2,-8.125492E-2,1.3845083E-2,4.2575686E-3,-3.739944E-2,-2.5104133E-2,-1.8357664E-2,-1.2044172E-2,-3.8680144E-2,-7.68879E-2,-1.6610717E-2,-5.4048896E-3],"split_indices":[2,2,1,0,2,2,2,2,2,1,0,2,0,0,2,0,0,0,0,2,2,1,1,0,0,1,0,2,0,0,0,0,0,0,0,0,0,0,0,0,0,0,0,0,0,0,0,0,0,0,0,0,0,0,0,0,0,0,0,0,0],"split_type":[0,0,0,0,0,0,0,0,0,0,0,0,0,0,0,0,0,0,0,0,0,0,0,0,0,0,0,0,0,0,0,0,0,0,0,0,0,0,0,0,0,0,0,0,0,0,0,0,0,0,0,0,0,0,0,0,0,0,0,0,0],"sum_hessian":[2.496E3,1.149E3,1.347E3,3.89E2,7.6E2,8.27E2,5.2E2,1.6E2,2.29E2,5.7E2,1.9E2,7.1E2,1.17E2,2.98E2,2.22E2,8.2E1,7.8E1,1.12E2,1.17E2,1.15E2,4.55E2,1.3E2,6E1,4.69E2,2.41E2,1.01E2,1.6E1,1.46E2,1.52E2,1.55E2,6.7E1,2E1,6.2E1,1.9E1,5.9E1,3.5E1,7.7E1,9.6E1,2.1E1,4E1,7.5E1,1.52E2,3.03E2,9.2E1,3.8E1,2E1,4E1,3.09E2,1.6E2,2.03E2,3.8E1,8E1,2.1E1,7.5E1,7.1E1,7.2E1,8E1,7.3E1,8.2E1,4.8E1,1.9E1],"tree_param":{"num_deleted":"0","num_feature":"3","num_nodes":"61","size_leaf_vector":"1"}},{"base_weights":[-3.8302818E-4,2.1875757E-1,-1.8733504E-1,-1.5343228E-1,4.092113E-1,-1.1849373E-1,-2.9638162E-1,1.6608483E-1,-3.7642714E-1,4.957601E-1,1.4832868E-1,-1.5225615E-1,8.594331E-2,-2.0997597E-1,-4.1090587E-1,9.379847E-4,3.3749118E-1,-6.151986E-1,-1.4458309E-1,5.7829696E-1,3.0568647E-1,-9.489158E-3,3.7219054E-1,-7.133226E-2,-3.0879322E-1,1.0739386E-1,-4.7815465E-3,-2.851103E-1,-1.3641569E-1,-5.340499E-1,-1.2235624E-1,1.8579595E-2,-6.0696225E-3,4.9827263E-2,2.7827252E-2,-2.1623407E-2,-6.9354E-2,7.977738E-3,-1.88448E-2,4.3243077E-2,6.485076E-2,1.0363892E-2,4.1289058E-2,1.3969201E-2,-1.5850386E-2,2.5109088E-2,4.8398543E-2,-3.1407103E-2,-2.3712418E-3,-1.740151E-2,-5.8467697E-2,8.6871525E-3,1.741066E-2,-3.370872E-2,-2.2628594E-2,-1.1741425E-2,-1.8894775E-2,-4.212966E-2,-8.205576E-2,-9.161979E-3,-2.026453E-2],"categories":[],"categories_nodes":[],"categories_segments":[],"categories_sizes":[],"default_left":[0,0,0,0,0,0,0,0,0,0,0,0,0,0,0,0,0,0,0,0,0,0,0,0,0,0,0,0,0,0,0,0,0,0,0,0,0,0,0,0,0,0,0,0,0,0,0,0,0,0,0,0,0,0,0,0,0,0,0,0,0],"id":9,"left_children":[1,3,5,7,9,11,13,15,17,19,21,23,25,27,29,31,33,35,37,39,41,43,45,47,49,51,-1,53,55,57,59,-1,-1,-1,-1,-1,-1,-1,-1,-1,-1,-1,-1,-1,-1,-1,-1,-1,-1,-1,-1,-1,-1,-1,-1,-1,-1,-1,-1,-1,-1],"loss_changes":[1.0234001E2,8.1580475E1,1.0084194E1,2.785028E1,1.7109154E1,5.728181E0,5.069298E0,4.5571465E0,1.2643337E1,8.781097E0,6.7514453E0,8.984627E0,3.437006E-1,1.6136503E0,7.858551E0,9.5694375E-1,6.135235E-1,3.3819008E0,1.1763372E0,3.7854004E0,3.7477627E0,2.5341525E0,9.480047E-1,5.4253674E0,8.896568E0,1.2452328E-1,0E0,3.7317562E-1,1.3053703E-1,4.693836E0,1.4924419E-1,0E0,0E0,0E0,0E0,0E0,0E0,0E0,0E0,0E0,0E0,0E0,0E0,0E0,0E0,0E0,0E0,0E0,0E0,0E0,0E0,0E0,0E0,0E0,0E0,0E0,0E0,0E0,0E0,0E0,0E0],"parents":[2147483647,0,0,1,1,2,2,3,3,4,4,5,5,6,6,7,7,8,8,9,9,10,10,11,11,12,12,13,13,14,14,15,15,16,16,17,17,18,18,19,19,20,20,21,21,22,22,23,23,24,24,25,25,27,27,28,28,29,29,30,30],"right_children":[2,4,6,8,10,12,14,16,18,20,22,24,26,28,30,32,34,36,38,40,42,44,46,48,50,52,-1,54,56,58,60,-1,-1,-1,-1,-1,-1,-1,-1,-1,-1,-1,-1,-1,-1,-1,-1,-1,-1,-1,-1,-1,-1,-1,-1,-1,-1,-1,-1,-1,-1],"split_conditions":[7E0,3E0,8.094E1,2.029E1,6E0,1.3E1,1.1E1,2E0,2E0,8.513E1,2.559E1,1.1E1,2.861E1,2.559E1,1.3E1,1.308E1,1.308E1,7.72E1,7.72E1,4E0,4E0,1.907E1,2.691E1,7.578E1,2.029E1,2.029E1,-4.7815465E-3,9E0,1E1,2.684E1,8.836E1,1.8579595E-2,-6.0696225E-3,4.9827263E-2,2.7827252E-2,-2.1623407E-2,-6.9354E-2,7.977738E-3,-1.88448E-2,4.3243077E-2,6.485076E-2,1.0363892E-2,4.1289058E-2,1.3969201E-2,-1.5850386E-2,2.5109088E-2,4.8398543E-2,-3.1407103E-2,-2.3712418E-3,-1.740151E-2,-5.8467697E-2,8.6871525E-3,1.741066E-2,-3.370872E-2,-2.2628594E-2,-1.1741425E-2,-1.8894775E-2,-4.212966E-2,-8.205576E-2,-9.161979E-3,-2.026453E-2],"split_indices":[2,2,1,0,2,2,2,2,2,1,0,2,0,0,2,0,0,1,1,2,2,0,0,1,0,0,0,2,2,0,1,0,0,0,0,0,0,0,0,0,0,0,0,0,0,0,0,0,0,0,0,0,0,0,0,0,0,0,0,0,0],"split_type":[0,0,0,0,0,0,0,0,0,0,0,0,0,0,0,0,0,0,0,0,0,0,0,0,0,0,0,0,0,0,0,0,0,0,0,0,0,0,0,0,0,0,0,0,0,0,0,0,0,0,0,0,0,0,0,0,0,0,0,0,0],"sum_hessian":[2.496E3,1.149E3,1.347E3,3.89E2,7.6E2,8.27E2,5.2E2,1.6E2,2.29E2,5.7E2,1.9E2,7.1E2,1.17E2,2.98E2,2.22E2,8.2E1,7.8E1,1.12E2,1.17E2,3.96E2,1.74E2,1.12E2,7.8E1,4.69E2,2.41E2,1.01E2,1.6E1,1.46E2,1.52E2,1.55E2,6.7E1,2E1,6.2E1,1.9E1,5.9E1,1.9E1,9.3E1,1.9E1,9.8E1,1.31E2,2.65E2,6.1E1,1.13E2,5.6E1,5.6E1,3.9E1,3.9E1,7.6E1,3.93E2,1.63E2,7.8E1,7.9E1,2.2E1,7.5E1,7.1E1,1.14E2,3.8E1,1.13E2,4.2E1,5E1,1.7E1],"tree_param":{"num_deleted":"0","num_feature":"3","num_nodes":"61","size_leaf_vector":"1"}},{"base_weights":[-3.8843637E-4,1.9707286E-1,-1.6884549E-1,-1.3811901E-1,3.6859423E-1,-8.8494025E-2,-2.5026572E-1,1.0596932E-1,-3.8275078E-1,4.464639E-1,1.3387077E-1,-4.5613855E-2,-2.6784977E-1,-1.6505067E-1,-3.638053E-1,-4.76581E-2,2.6325563E-1,-6.021695E-1,-1.6828132E-1,6.779386E-1,3.866009E-1,-8.556921E-3,3.359019E-1,-2.5396332E-1,3.31521E-2,-3.190827E-2,-4.6678752E-1,-1.0757576E-1,-2.569825E-1,-4.9088642E-1,-7.699778E-2,9.041331E-3,-1.4513846E-2,4.509369E-2,2.1175718E-2,-1.9569162E-2,-6.999278E-2,7.219832E-3,-2.2558145E-2,4.4482008E-2,7.9477966E-2,4.2781126E-2,1.1273362E-2,1.2596766E-2,-1.4293139E-2,2.2660932E-2,4.367969E-2,-7.6873444E-2,-9.201744E-3,1.4403229E-2,-3.983592E-3,-1.0600004E-3,-4.283011E-3,-5.89192E-2,-4.331502E-3,-6.38212E-3,-2.363173E-2,-3.0382216E-2,-2.0397143E-2,-5.9577048E-2,-3.0708386E-2,-3.3995233E-4,-1.3700861E-2],"categories":[],"categories_nodes":[],"categories_segments":[],"categories_sizes":[],"default_left":[0,0,0,0,0,0,0,0,0,0,0,0,0,0,0,0,0,0,0,0,0,0,0,0,0,0,0,0,0,0,0,0,0,0,0,0,0,0,0,0,0,0,0,0,0,0,0,0,0,0,0,0,0,0,0,0,0,0,0,0,0,0,0],"id":10,"left_children":[1,3,5,7,9,11,13,15,17,19,21,23,25,27,29,31,33,35,37,39,41,43,45,47,49,51,53,55,57,59,61,-1,-1,-1,-1,-1,-1,-1,-1,-1,-1,-1,-1,-1,-1,-1,-1,-1,-1,-1,-1,-1,-1,-1,-1,-1,-1,-1,-1,-1,-1,-1,-1],"loss_changes":[8.309286E1,6.6167366E1,8.796787E0,2.3328148E1,1.3849663E1,5.2175307E0,6.412716E0,4.7485905E0,9.075096E0,7.6501236E0,5.498866E0,9.034383E0,6.1339397E0,2.0013247E0,1.038628E1,1.3590475E0,8.420453E-1,3.6777382E0,1.3942385E0,2.8060532E0,5.0982666E0,2.060668E0,7.721567E-1,1.25173855E1,3.242908E0,1.3742257E-2,3.6547585E0,1.3255789E0,3.0303288E-1,3.6340866E0,3.926199E-1,0E0,0E0,0E0,0E0,0E0,0E0,0E0,0E0,0E0,0E0,0E0,0E0,0E0,0E0,0E0,0E0,0E0,0E0,0E0,0E0,0E0,0E0,0E0,0E0,0E0,0E0,0E0,0E0,0E0,0E0,0E0,0E0],"parents":[2147483647,0,0,1,1,2,2,3,3,4,4,5,5,6,6,7,7,8,8,9,9,10,10,11,11,12,12,13,13,14,14,15,15,16,16,17,17,18,18,19,19,20,20,21,21,22,22,23,23,24,24,25,25,26,26,27,27,28,28,29,29,30,30],"right_children":[2,4,6,8,10,12,14,16,18,20,22,24,26,28,30,32,34,36,38,40,42,44,46,48,50,52,54,56,58,60,62,-1,-1,-1,-1,-1,-1,-1,-1,-1,-1,-1,-1,-1,-1,-1,-1,-1,-1,-1,-1,-1,-1,-1,-1,-1,-1,-1,-1,-1,-1,-1,-1],"split_conditions":[7E0,3E0,8.027E1,2.257E1,6E0,2.861E1,1.1E1,2E0,2E0,7.72E1,2.559E1,9E0,1E1,8.582E1,1.3E1,1.738E1,1.308E1,7.72E1,7.72E1,4E0,8.836E1,1.907E1,2.691E1,7.578E1,1.1E1,8E0,1.3E1,1E1,9E0,8.582E1,8.513E1,9.041331E-3,-1.4513846E-2,4.509369E-2,2.1175718E-2,-1.9569162E-2,-6.999278E-2,7.219832E-3,-2.2558145E-2,4.4482008E-2,7.9477966E-2,4.2781126E-2,1.1273362E-2,1.2596766E-2,-1.4293139E-2,2.2660932E-2,4.367969E-2,-7.6873444E-2,-9.201744E-3,1.4403229E-2,-3.983592E-3,-1.0600004E-3,-4.283011E-3,-5.89192E-2,-4.331502E-3,-6.38212E-3,-2.363173E-2,-3.0382216E-2,-2.0397143E-2,-5.9577048E-2,-3.0708386E-2,-3.3995233E-4,-1.3700861E-2],"split_indices":[2,2,1,0,2,0,2,2,2,1,0,2,2,1,2,0,0,1,1,2,1,0,0,1,2,2,2,2,2,1,1,0,0,0,0,0,0,0,0,0,0,0,0,0,0,0,0,0,0,0,0,0,0,0,0,0,0,0,0,0,0,0,0],"split_type":[0,0,0,0,0,0,0,0,0,0,0,0,0,0,0,0,0,0,0,0,0,0,0,0,0,0,0,0,0,0,0,0,0,0,0,0,0,0,0,0,0,0,0,0,0,0,0,0,0,0,0,0,0,0,0,0,0,0,0,0,0,0,0],"sum_hessian":[2.496E3,1.149E3,1.347E3,3.89E2,7.6E2,6.79E2,6.68E2,1.95E2,1.94E2,5.7E2,1.9E2,5.49E2,1.3E2,3.83E2,2.85E2,9.9E1,9.6E1,9.5E1,9.9E1,1.15E2,4.55E2,1.12E2,7.8E1,1.5E2,3.99E2,6E1,7E1,2.37E2,1.46E2,1.97E2,8.8E1,4.1E1,5.8E1,1.9E1,7.7E1,1.9E1,7.6E1,1.9E1,8E1,4E1,7.5E1,3.95E2,6E1,5.6E1,5.6E1,3.9E1,3.9E1,3.5E1,1.15E2,1.58E2,2.41E2,2.1E1,3.9E1,5.4E1,1.6E1,1.78E2,5.9E1,7.5E1,7.1E1,1.24E2,7.3E1,4E1,4.8E1],"tree_param":{"num_deleted":"0","num_feature":"3","num_nodes":"63","size_leaf_vector":"1"}},{"base_weights":[-4.0204544E-4,1.7753819E-1,-1.5220536E-1,-1.24420166E-1,3.3205357E-1,-7.985686E-2,-2.2551593E-1,9.568258E-2,-3.450136E-1,4.021291E-1,1.2082224E-1,-4.1190155E-2,-2.4158838E-1,-1.487561E-1,-3.2778957E-1,-4.294694E-2,2.3761319E-1,-5.428854E-1,-1.516065E-1,5.077158E-1,2.9587707E-1,1.5144375E-2,3.457891E-1,-2.2913721E-1,2.9862836E-2,-2.8805068E-2,-4.2099956E-1,-9.694443E-2,-2.316297E-1,-4.4225383E-1,-6.945569E-2,8.158728E-3,-1.3087049E-2,3.4268614E-2,1.6105233E-2,-1.771007E-2,-6.3084394E-2,6.533952E-3,-2.0330174E-2,3.7226897E-2,5.7454456E-2,1.386336E-2,3.7418466E-2,5.7263514E-3,-2.2148E-2,4.638047E-2,2.7690819E-2,-6.939965E-2,-8.289523E-3,1.2971953E-2,-3.5868888E-3,-9.5881766E-4,-3.8654231E-3,-5.31344E-2,-3.923823E-3,-5.7474864E-3,-2.1307958E-2,-2.7383978E-2,-1.8385755E-2,-3.0657297E-2,-5.6441993E-2,-3.067831E-4,-1.2358726E-2],"categories":[],"categories_nodes":[],"categories_segments":[],"categories_sizes":[],"default_left":[0,0,0,0,0,0,0,0,0,0,0,0,0,0,0,0,0,0,0,0,0,0,0,0,0,0,0,0,0,0,0,0,0,0,0,0,0,0,0,0,0,0,0,0,0,0,0,0,0,0,0,0,0,0,0,0,0,0,0,0,0,0,0],"id":11,"left_children":[1,3,5,7,9,11,13,15,17,19,21,23,25,27,29,31,33,35,37,39,41,43,45,47,49,51,53,55,57,59,61,-1,-1,-1,-1,-1,-1,-1,-1,-1,-1,-1,-1,-1,-1,-1,-1,-1,-1,-1,-1,-1,-1,-1,-1,-1,-1,-1,-1,-1,-1,-1,-1],"loss_changes":[6.747578E1,5.3697113E1,7.1316624E0,1.8968767E1,1.1215851E1,4.242514E0,5.203228E0,3.8666558E0,7.3803062E0,6.255707E0,4.5356E0,7.351653E0,4.98889E0,1.6263704E0,8.426304E0,1.1056263E0,7.251239E-1,2.9769688E0,1.1347911E0,2.36586E0,3.4820557E0,1.318283E0,3.6743927E-1,1.0207743E1,2.6301537E0,1.1174865E-2,2.9700432E0,1.0786989E0,2.4607277E-1,3.1089325E0,3.194583E-1,0E0,0E0,0E0,0E0,0E0,0E0,0E0,0E0,0E0,0E0,0E0,0E0,0E0,0E0,0E0,0E0,0E0,0E0,0E0,0E0,0E0,0E0,0E0,0E0,0E0,0E0,0E0,0E0,0E0,0E0,0E0,0E0],"parents":[2147483647,0,0,1,1,2,2,3,3,4,4,5,5,6,6,7,7,8,8,9,9,10,10,11,11,12,12,13,13,14,14,15,15,16,16,17,17,18,18,19,19,20,20,21,21,22,22,23,23,24,24,25,25,26,26,27,27,28,28,29,29,30,30],"right_children":[2,4,6,8,10,12,14,16,18,20,22,24,26,28,30,32,34,36,38,40,42,44,46,48,50,52,54,56,58,60,62,-1,-1,-1,-1,-1,-1,-1,-1,-1,-1,-1,-1,-1,-1,-1,-1,-1,-1,-1,-1,-1,-1,-1,-1,-1,-1,-1,-1,-1,-1,-1,-1],"split_conditions":[7E0,3E0,8.027E1,2.257E1,6E0,2.861E1,1.1E1,2E0,2E0,8.027E1,2.684E1,9E0,1E1,8.582E1,1.3E1,1.738E1,1.738E1,7.72E1,7.72E1,4E0,4E0,8.836E1,7.72E1,7.578E1,1.1E1,8E0,1.3E1,1E1,9E0,1.2E1,8.513E1,8.158728E-3,-1.3087049E-2,3.4268614E-2,1.6105233E-2,-1.771007E-2,-6.3084394E-2,6.533952E-3,-2.0330174E-2,3.7226897E-2,5.7454456E-2,1.386336E-2,3.7418466E-2,5.7263514E-3,-2.2148E-2,4.638047E-2,2.7690819E-2,-6.939965E-2,-8.289523E-3,1.2971953E-2,-3.5868888E-3,-9.5881766E-4,-3.8654231E-3,-5.31344E-2,-3.923823E-3,-5.7474864E-3,-2.1307958E-2,-2.7383978E-2,-1.8385755E-2,-3.0657297E-2,-5.6441993E-2,-3.067831E-4,-1.2358726E-2],"split_indices":[2,2,1,0,2,0,2,2,2,1,0,2,2,1,2,0,0,1,1,2,2,1,1,1,2,2,2,2,2,2,1,0,0,0,0,0,0,0,0,0,0,0,0,0,0,0,0,0,0,0,0,0,0,0,0,0,0,0,0,0,0,0,0],"split_type":[0,0,0,0,0,0,0,0,0,0,0,0,0,0,0,0,0,0,0,0,0,0,0,0,0,0,0,0,0,0,0,0,0,0,0,0,0,0,0,0,0,0,0,0,0,0,0,0,0,0,0,0,0,0,0,0,0,0,0,0,0,0,0],"sum_hessian":[2.496E3,1.149E3,1.347E3,3.89E2,7.6E2,6.79E2,6.68E2,1.95E2,1.94E2,5.7E2,1.9E2,5.49E2,1.3E2,3.83E2,2.85E2,9.9E1,9.6E1,9.5E1,9.9E1,2.84E2,2.86E2,1.3E2,6E1,1.5E2,3.99E2,6E1,7E1,2.37E2,1.46E2,1.97E2,8.8E1,4.1E1,5.8E1,3.9E1,5.7E1,1.9E1,7.6E1,1.9E1,8E1,9.6E1,1.88E2,9.6E1,1.9E2,1.11E2,1.9E1,2E1,4E1,3.5E1,1.15E2,1.58E2,2.41E2,2.1E1,3.9E1,5.4E1,1.6E1,1.78E2,5.9E1,7.5E1,7.1E1,9.5E1,1.02E2,4E1,4.8E1],"tree_param":{"num_deleted":"0","num_feature":"3","num_nodes":"63","size_leaf_vector":"1"}},{"base_weights":[-4.2127082E-4,1.5991868E-1,-1.372095E-1,-1.1210415E-1,2.9911578E-1,-7.206267E-2,-2.0322241E-1,1.2740119E-1,-2.7927047E-1,3.6217183E-1,1.09041855E-1,-3.7195385E-2,-2.1790195E-1,-1.3407022E-1,-2.9535952E-1,6.13293E-3,2.5319695E-1,-4.5455986E-1,-1.090419E-1,5.612292E-1,3.1074017E-1,-8.704939E-3,2.760842E-1,-2.0673808E-1,2.6899973E-2,-2.6003728E-2,-3.797032E-1,-8.7363794E-2,-2.0877811E-1,-3.984684E-1,-6.265254E-2,1.5172026E-2,-4.2493525E-3,3.7554305E-2,2.0819496E-2,-2.2121549E-2,-5.564296E-2,-6.827959E-3,-2.838102E-2,3.6510408E-2,6.59649E-2,3.466444E-2,7.256298E-3,1.0796617E-2,-1.2522334E-2,4.196328E-2,2.2031125E-2,-6.265244E-2,-7.4677356E-3,1.1682924E-2,-3.2296942E-3,-8.672845E-4,-3.4885623E-3,-4.7917563E-2,-3.5545153E-3,-5.175965E-3,-1.9212676E-2,-2.4681628E-2,-1.6572703E-2,-3.295911E-2,-6.390822E-2,-2.7687027E-4,-1.1148081E-2],"categories":[],"categories_nodes":[],"categories_segments":[],"categories_sizes":[],"default_left":[0,0,0,0,0,0,0,0,0,0,0,0,0,0,0,0,0,0,0,0,0,0,0,0,0,0,0,0,0,0,0,0,0,0,0,0,0,0,0,0,0,0,0,0,0,0,0,0,0,0,0,0,0,0,0,0,0,0,0,0,0,0,0],"id":12,"left_children":[1,3,5,7,9,11,13,15,17,19,21,23,25,27,29,31,33,35,37,39,41,43,45,47,49,51,53,55,57,59,61,-1,-1,-1,-1,-1,-1,-1,-1,-1,-1,-1,-1,-1,-1,-1,-1,-1,-1,-1,-1,-1,-1,-1,-1,-1,-1,-1,-1,-1,-1,-1,-1],"loss_changes":[5.478769E1,4.3578033E1,5.7824745E0,1.5650097E1,9.081322E0,3.4497082E0,4.2229214E0,2.4545074E0,6.813465E0,5.671417E0,3.759125E0,5.982356E0,4.0575943E0,1.3216662E0,6.837364E0,5.9403694E-1,3.5677338E-1,2.5630016E0,8.212489E-1,1.9982643E0,3.874363E0,1.5496792E0,5.400343E-1,8.324244E0,2.133187E0,9.087238E-3,2.413598E0,8.777946E-1,1.9982052E-1,3.0707836E0,2.599295E-1,0E0,0E0,0E0,0E0,0E0,0E0,0E0,0E0,0E0,0E0,0E0,0E0,0E0,0E0,0E0,0E0,0E0,0E0,0E0,0E0,0E0,0E0,0E0,0E0,0E0,0E0,0E0,0E0,0E0,0E0,0E0,0E0],"parents":[2147483647,0,0,1,1,2,2,3,3,4,4,5,5,6,6,7,7,8,8,9,9,10,10,11,11,12,12,13,13,14,14,15,15,16,16,17,17,18,18,19,19,20,20,21,21,22,22,23,23,24,24,25,25,26,26,27,27,28,28,29,29,30,30],"right_children":[2,4,6,8,10,12,14,16,18,20,22,24,26,28,30,32,34,36,38,40,42,44,46,48,50,52,54,56,58,60,62,-1,-1,-1,-1,-1,-1,-1,-1,-1,-1,-1,-1,-1,-1,-1,-1,-1,-1,-1,-1,-1,-1,-1,-1,-1,-1,-1,-1,-1,-1,-1,-1],"split_conditions":[7E0,3E0,8.027E1,2.029E1,6E0,2.861E1,1.1E1,2E0,2E0,7.72E1,2.559E1,9E0,1E1,8.582E1,1.3E1,1.308E1,1.308E1,2.559E1,2.861E1,4E0,8.836E1,1.907E1,7.72E1,7.578E1,1.1E1,8E0,1.3E1,1E1,9E0,2.684E1,8.513E1,1.5172026E-2,-4.2493525E-3,3.7554305E-2,2.0819496E-2,-2.2121549E-2,-5.564296E-2,-6.827959E-3,-2.838102E-2,3.6510408E-2,6.59649E-2,3.466444E-2,7.256298E-3,1.0796617E-2,-1.2522334E-2,4.196328E-2,2.2031125E-2,-6.265244E-2,-7.4677356E-3,1.1682924E-2,-3.2296942E-3,-8.672845E-4,-3.4885623E-3,-4.7917563E-2,-3.5545153E-3,-5.175965E-3,-1.9212676E-2,-2.4681628E-2,-1.6572703E-2,-3.295911E-2,-6.390822E-2,-2.7687027E-4,-1.1148081E-2],"split_indices":[2,2,1,0,2,0,2,2,2,1,0,2,2,1,2,0,0,0,0,2,1,0,1,1,2,2,2,2,2,0,1,0,0,0,0,0,0,0,0,0,0,0,0,0,0,0,0,0,0,0,0,0,0,0,0,0,0,0,0,0,0,0,0],"split_type":[0,0,0,0,0,0,0,0,0,0,0,0,0,0,0,0,0,0,0,0,0,0,0,0,0,0,0,0,0,0,0,0,0,0,0,0,0,0,0,0,0,0,0,0,0,0,0,0,0,0,0,0,0,0,0,0,0,0,0,0,0,0,0],"sum_hessian":[2.496E3,1.149E3,1.347E3,3.89E2,7.6E2,6.79E2,6.68E2,1.6E2,2.29E2,5.7E2,1.9E2,5.49E2,1.3E2,3.83E2,2.85E2,8.2E1,7.8E1,1.12E2,1.17E2,1.15E2,4.55E2,1.12E2,7.8E1,1.5E2,3.99E2,6E1,7E1,2.37E2,1.46E2,1.97E2,8.8E1,2E1,6.2E1,1.9E1,5.9E1,3.5E1,7.7E1,9.6E1,2.1E1,4E1,7.5E1,3.95E2,6E1,5.6E1,5.6E1,2E1,5.8E1,3.5E1,1.15E2,1.58E2,2.41E2,2.1E1,3.9E1,5.4E1,1.6E1,1.78E2,5.9E1,7.5E1,7.1E1,1.55E2,4.2E1,4E1,4.8E1],"tree_param":{"num_deleted":"0","num_feature":"3","num_nodes":"63","size_leaf_vector":"1"}},{"base_weights":[-4.3063943E-4,1.4406846E-1,-1.23704776E-1,-1.0100576E-1,2.6947567E-1,-6.5029226E-2,-1.8316019E-1,1.1509152E-1,-2.518347E-1,3.262074E-1,9.846363E-2,-9.204881E-2,9.831576E-2,-1.2083414E-1,-2.6620227E-1,5.651405E-3,2.2861604E-1,-4.097921E-1,-9.843622E-2,5.0598985E-1,2.797579E-1,1.1215103E-2,2.8421926E-1,-4.8099086E-2,-3.0428445E-1,1.2449416E-1,-3.219989E-3,-5.8889993E-2,-1.672355E-1,-3.591109E-1,-5.651564E-2,1.3727072E-2,-3.8311407E-3,3.3986654E-2,1.8772228E-2,-1.9970842E-2,-5.0150007E-2,-6.152214E-3,-2.5671938E-2,3.2948412E-2,5.9455227E-2,3.120673E-2,6.5425425E-3,4.678609E-3,-1.8854318E-2,3.7966795E-2,2.2839874E-2,-1.5061038E-2,1.8435674E-3,-9.183264E-3,-6.7942575E-2,3.9185784E-3,1.5000502E-2,-1.5854863E-3,-1.8970793E-2,-1.365453E-2,-2.2318488E-2,-4.5037463E-2,-2.0009635E-2,6.236797E-5,-1.0317272E-2],"categories":[],"categories_nodes":[],"categories_segments":[],"categories_sizes":[],"default_left":[0,0,0,0,0,0,0,0,0,0,0,0,0,0,0,0,0,0,0,0,0,0,0,0,0,0,0,0,0,0,0,0,0,0,0,0,0,0,0,0,0,0,0,0,0,0,0,0,0,0,0,0,0,0,0,0,0,0,0,0,0],"id":13,"left_children":[1,3,5,7,9,11,13,15,17,19,21,23,25,27,29,31,33,35,37,39,41,43,45,47,49,51,-1,53,55,57,59,-1,-1,-1,-1,-1,-1,-1,-1,-1,-1,-1,-1,-1,-1,-1,-1,-1,-1,-1,-1,-1,-1,-1,-1,-1,-1,-1,-1,-1,-1],"loss_changes":[4.449689E1,3.53714E1,4.690693E0,1.2740536E1,7.350956E0,3.010239E0,3.4303665E0,1.9989939E0,5.5326586E0,4.6267586E0,3.0923312E0,5.4327393E0,3.354277E-1,1.0938792E0,5.55147E0,4.855265E-1,2.9560614E-1,2.0769424E0,6.736655E-1,1.6173897E0,3.1373596E0,9.396546E-1,2.3829222E-1,3.3107495E0,7.907551E0,1.7040145E-1,0E0,9.315336E-1,3.455696E-1,2.78331E0,2.3733425E-1,0E0,0E0,0E0,0E0,0E0,0E0,0E0,0E0,0E0,0E0,0E0,0E0,0E0,0E0,0E0,0E0,0E0,0E0,0E0,0E0,0E0,0E0,0E0,0E0,0E0,0E0,0E0,0E0,0E0,0E0],"parents":[2147483647,0,0,1,1,2,2,3,3,4,4,5,5,6,6,7,7,8,8,9,9,10,10,11,11,12,12,13,13,14,14,15,15,16,16,17,17,18,18,19,19,20,20,21,21,22,22,23,23,24,24,25,25,27,27,28,28,29,29,30,30],"right_children":[2,4,6,8,10,12,14,16,18,20,22,24,26,28,30,32,34,36,38,40,42,44,46,48,50,52,-1,54,56,58,60,-1,-1,-1,-1,-1,-1,-1,-1,-1,-1,-1,-1,-1,-1,-1,-1,-1,-1,-1,-1,-1,-1,-1,-1,-1,-1,-1,-1,-1,-1],"split_conditions":[7E0,3E0,8.027E1,2.029E1,6E0,1.3E1,1.1E1,2E0,2E0,7.72E1,2.684E1,1.2E1,2.861E1,8.513E1,1.3E1,1.308E1,1.308E1,2.559E1,2.861E1,4E0,8.836E1,8.836E1,7.72E1,9E0,2.029E1,7.578E1,-3.219989E-3,1E1,8.836E1,8.582E1,2.257E1,1.3727072E-2,-3.8311407E-3,3.3986654E-2,1.8772228E-2,-1.9970842E-2,-5.0150007E-2,-6.152214E-3,-2.5671938E-2,3.2948412E-2,5.9455227E-2,3.120673E-2,6.5425425E-3,4.678609E-3,-1.8854318E-2,3.7966795E-2,2.2839874E-2,-1.5061038E-2,1.8435674E-3,-9.183264E-3,-6.7942575E-2,3.9185784E-3,1.5000502E-2,-1.5854863E-3,-1.8970793E-2,-1.365453E-2,-2.2318488E-2,-4.5037463E-2,-2.0009635E-2,6.236797E-5,-1.0317272E-2],"split_indices":[2,2,1,0,2,2,2,2,2,1,0,2,0,1,2,0,0,0,0,2,1,1,1,2,0,1,0,2,1,1,0,0,0,0,0,0,0,0,0,0,0,0,0,0,0,0,0,0,0,0,0,0,0,0,0,0,0,0,0,0,0],"split_type":[0,0,0,0,0,0,0,0,0,0,0,0,0,0,0,0,0,0,0,0,0,0,0,0,0,0,0,0,0,0,0,0,0,0,0,0,0,0,0,0,0,0,0,0,0,0,0,0,0,0,0,0,0,0,0,0,0,0,0,0,0],"sum_hessian":[2.496E3,1.149E3,1.347E3,3.89E2,7.6E2,6.79E2,6.68E2,1.6E2,2.29E2,5.7E2,1.9E2,5.83E2,9.6E1,3.83E2,2.85E2,8.2E1,7.8E1,1.12E2,1.17E2,1.15E2,4.55E2,1.3E2,6E1,4.84E2,9.9E1,8E1,1.6E1,1.65E2,2.18E2,1.97E2,8.8E1,2E1,6.2E1,1.9E1,5.9E1,3.5E1,7.7E1,9.6E1,2.1E1,4E1,7.5E1,3.95E2,6E1,1.11E2,1.9E1,2E1,4E1,1.9E2,2.94E2,6.4E1,3.5E1,1.9E1,6.1E1,1.25E2,4E1,1.43E2,7.5E1,1.24E2,7.3E1,4E1,4.8E1],"tree_param":{"num_deleted":"0","num_feature":"3","num_nodes":"61","size_leaf_vector":"1"}},{"base_weights":[-4.1519493E-4,1.2978116E-1,-1.1148745E-1,-9.100597E-2,2.427604E-1,-5.8636032E-2,-1.6504122E-1,4.4216514E-2,-2.8984037E-1,2.9381463E-1,8.88613E-2,-2.865482E-2,-1.8406375E-1,-1.0889788E-1,-2.3984541E-1,-5.1343072E-2,1.410425E-1,5.9951087E-3,-3.8357157E-1,1.7048466E-1,3.558433E-1,-8.530205E-3,2.2704332E-1,-1.7156744E-1,2.5366332E-2,-1.4203157E-2,-3.2740787E-1,-7.057785E-2,-1.7019904E-1,-3.235284E-1,-5.0979313E-2,5.205292E-4,-1.8029228E-2,2.0642238E-2,1.4095558E-4,-5.977265E-3,7.146311E-3,-5.7728827E-2,-1.9304164E-2,4.2965855E-2,-1.2887227E-3,9.8743765E-3,4.1581865E-2,9.27624E-3,-1.0967315E-2,1.5182358E-2,2.9658696E-2,-3.09078E-2,1.8099582E-2,1.0338787E-2,-2.600057E-3,4.0845175E-6,-4.133654E-3,-4.1363787E-2,-2.9169223E-3,-4.146231E-3,-1.5626295E-2,-2.0453861E-2,-1.3158783E-2,-2.0120677E-2,-4.3439593E-2,2.2507878E-4,-9.447839E-3],"categories":[],"categories_nodes":[],"categories_segments":[],"categories_sizes":[],"default_left":[0,0,0,0,0,0,0,0,0,0,0,0,0,0,0,0,0,0,0,0,0,0,0,0,0,0,0,0,0,0,0,0,0,0,0,0,0,0,0,0,0,0,0,0,0,0,0,0,0,0,0,0,0,0,0,0,0,0,0,0,0,0,0],"id":14,"left_children":[1,3,5,7,9,11,13,15,17,19,21,23,25,27,29,31,33,35,37,39,41,43,45,47,49,51,53,55,57,59,61,-1,-1,-1,-1,-1,-1,-1,-1,-1,-1,-1,-1,-1,-1,-1,-1,-1,-1,-1,-1,-1,-1,-1,-1,-1,-1,-1,-1,-1,-1,-1,-1],"loss_changes":[3.612409E1,2.870811E1,3.8056927E0,1.0498701E1,5.9532204E0,2.5518486E0,2.7835197E0,2.1631095E0,4.383482E0,4.3074837E0,2.5723677E0,4.2505198E0,3.1850057E0,8.900275E-1,4.503702E0,8.6137867E-1,1.0586944E0,1.7219318E-1,4.317621E0,9.1779E0,5.8029785E0,1.1678622E0,3.6822462E-1,7.3766E0,1.6057781E0,2.357745E-2,1.8138494E0,5.87276E-1,1.6799116E-1,2.5977726E0,2.0628864E-1,0E0,0E0,0E0,0E0,0E0,0E0,0E0,0E0,0E0,0E0,0E0,0E0,0E0,0E0,0E0,0E0,0E0,0E0,0E0,0E0,0E0,0E0,0E0,0E0,0E0,0E0,0E0,0E0,0E0,0E0,0E0,0E0],"parents":[2147483647,0,0,1,1,2,2,3,3,4,4,5,5,6,6,7,7,8,8,9,9,10,10,11,11,12,12,13,13,14,14,15,15,16,16,17,17,18,18,19,19,20,20,21,21,22,22,23,23,24,24,25,25,26,26,27,27,28,28,29,29,30,30],"right_children":[2,4,6,8,10,12,14,16,18,20,22,24,26,28,30,32,34,36,38,40,42,44,46,48,50,52,54,56,58,60,62,-1,-1,-1,-1,-1,-1,-1,-1,-1,-1,-1,-1,-1,-1,-1,-1,-1,-1,-1,-1,-1,-1,-1,-1,-1,-1,-1,-1,-1,-1,-1,-1],"split_conditions":[7E0,3E0,8.027E1,2.559E1,6E0,2.861E1,1.1E1,2E0,7.72E1,4E0,2.559E1,9E0,1E1,8.582E1,1.3E1,2.029E1,2.029E1,2E0,2E0,2.029E1,1.738E1,1.907E1,2.691E1,2.029E1,1.1E1,9E0,1.3E1,1E1,9E0,1.2E1,8.513E1,5.205292E-4,-1.8029228E-2,2.0642238E-2,1.4095558E-4,-5.977265E-3,7.146311E-3,-5.7728827E-2,-1.9304164E-2,4.2965855E-2,-1.2887227E-3,9.8743765E-3,4.1581865E-2,9.27624E-3,-1.0967315E-2,1.5182358E-2,2.9658696E-2,-3.09078E-2,1.8099582E-2,1.0338787E-2,-2.600057E-3,4.0845175E-6,-4.133654E-3,-4.1363787E-2,-2.9169223E-3,-4.146231E-3,-1.5626295E-2,-2.0453861E-2,-1.3158783E-2,-2.0120677E-2,-4.3439593E-2,2.2507878E-4,-9.447839E-3],"split_indices":[2,2,1,0,2,0,2,2,1,2,0,2,2,1,2,0,0,2,2,0,0,0,0,0,2,2,2,2,2,2,1,0,0,0,0,0,0,0,0,0,0,0,0,0,0,0,0,0,0,0,0,0,0,0,0,0,0,0,0,0,0,0,0],"split_type":[0,0,0,0,0,0,0,0,0,0,0,0,0,0,0,0,0,0,0,0,0,0,0,0,0,0,0,0,0,0,0,0,0,0,0,0,0,0,0,0,0,0,0,0,0,0,0,0,0,0,0,0,0,0,0,0,0,0,0,0,0,0,0],"sum_hessian":[2.496E3,1.149E3,1.347E3,3.89E2,7.6E2,6.79E2,6.68E2,2.32E2,1.57E2,5.7E2,1.9E2,5.49E2,1.3E2,3.83E2,2.85E2,1.17E2,1.15E2,3.8E1,1.19E2,1.92E2,3.78E2,1.12E2,7.8E1,1.5E2,3.99E2,6E1,7E1,2.37E2,1.46E2,1.97E2,8.8E1,8.2E1,3.5E1,7.8E1,3.7E1,1.9E1,1.9E1,5.8E1,6.1E1,7.9E1,1.13E2,7.2E1,3.06E2,5.6E1,5.6E1,3.9E1,3.9E1,1.08E2,4.2E1,1.58E2,2.41E2,4E1,2E1,5.4E1,1.6E1,1.78E2,5.9E1,7.5E1,7.1E1,9.5E1,1.02E2,4E1,4.8E1],"tree_param":{"num_deleted":"0","num_feature":"3","num_nodes":"63","size_leaf_vector":"1"}},{"base_weights":[-4.2009974E-4,1.1685847E-1,-1.0047198E-1,-8.209157E-2,2.1866354E-1,-1.204441E-1,2.5733536E-2,3.9808806E-2,-2.6133648E-1,2.596174E-1,5.687224E-2,-7.611621E-2,-3.311734E-1,8.07758E-2,-7.0159405E-2,-4.635727E-2,1.2711734E-1,5.425496E-3,-3.458563E-1,3.0553925E-1,1.21355504E-1,1.0311285E-1,-8.330785E-2,-1.0338007E-1,2.5828157E-2,-1.0666802E-1,-5.6833553E-1,9.78505E-2,-2.6423987E-3,-4.7769874E-2,-1.2969868E-2,6.339325E-3,-1.0561916E-2,1.8604139E-2,1.2721262E-4,-5.4094354E-3,6.4674066E-3,-5.205379E-2,-1.7404873E-2,2.0030504E-2,3.5766896E-2,-1.256946E-2,1.5522659E-2,-2.419002E-3,1.6955836E-2,-2.2374629E-4,-1.6021285E-2,-2.0977955E-2,-7.621549E-3,9.343086E-3,-2.2212325E-2,3.1389098E-3,-1.3952133E-2,-3.890907E-2,-6.1216738E-2,1.7287722E-2,7.971529E-3,-2.4016285E-3,-6.112306E-3],"categories":[],"categories_nodes":[],"categories_segments":[],"categories_sizes":[],"default_left":[0,0,0,0,0,0,0,0,0,0,0,0,0,0,0,0,0,0,0,0,0,0,0,0,0,0,0,0,0,0,0,0,0,0,0,0,0,0,0,0,0,0,0,0,0,0,0,0,0,0,0,0,0,0,0,0,0,0,0],"id":15,"left_children":[1,3,5,7,9,11,13,15,17,19,21,23,25,27,29,31,33,35,37,39,41,43,45,47,49,51,53,55,-1,57,-1,-1,-1,-1,-1,-1,-1,-1,-1,-1,-1,-1,-1,-1,-1,-1,-1,-1,-1,-1,-1,-1,-1,-1,-1,-1,-1,-1,-1],"loss_changes":[2.9311392E1,2.331019E1,3.400855E0,8.531912E0,5.027603E0,1.0847933E1,9.8212767E-1,1.7587594E0,3.564252E0,3.8169098E0,1.013302E0,2.6792302E0,1.0694698E1,2.1857339E-1,8.445215E-2,7.7417016E-1,8.5993934E-1,1.4103068E-1,3.5107965E0,2.4244118E0,1.2997932E0,9.9377E-1,2.427955E-1,2.1806364E0,3.4402382E0,4.806211E-1,5.3175926E-1,1.2500292E-1,0E0,1.4708541E-2,0E0,0E0,0E0,0E0,0E0,0E0,0E0,0E0,0E0,0E0,0E0,0E0,0E0,0E0,0E0,0E0,0E0,0E0,0E0,0E0,0E0,0E0,0E0,0E0,0E0,0E0,0E0,0E0,0E0],"parents":[2147483647,0,0,1,1,2,2,3,3,4,4,5,5,6,6,7,7,8,8,9,9,10,10,11,11,12,12,13,13,14,14,15,15,16,16,17,17,18,18,19,19,20,20,21,21,22,22,23,23,24,24,25,25,26,26,27,27,29,29],"right_children":[2,4,6,8,10,12,14,16,18,20,22,24,26,28,30,32,34,36,38,40,42,44,46,48,50,52,54,56,-1,58,-1,-1,-1,-1,-1,-1,-1,-1,-1,-1,-1,-1,-1,-1,-1,-1,-1,-1,-1,-1,-1,-1,-1,-1,-1,-1,-1,-1,-1],"split_conditions":[7E0,3E0,1.3E1,2.559E1,8.582E1,1.2E1,8.094E1,2E0,7.72E1,6E0,6E0,2.691E1,2.257E1,2.861E1,8.836E1,1.738E1,2.029E1,2E0,2E0,4E0,7.578E1,4E0,2.257E1,8E0,1.1E1,1.308E1,2.559E1,1.308E1,-2.6423987E-3,2.257E1,-1.2969868E-2,6.339325E-3,-1.0561916E-2,1.8604139E-2,1.2721262E-4,-5.4094354E-3,6.4674066E-3,-5.205379E-2,-1.7404873E-2,2.0030504E-2,3.5766896E-2,-1.256946E-2,1.5522659E-2,-2.419002E-3,1.6955836E-2,-2.2374629E-4,-1.6021285E-2,-2.0977955E-2,-7.621549E-3,9.343086E-3,-2.2212325E-2,3.1389098E-3,-1.3952133E-2,-3.890907E-2,-6.1216738E-2,1.7287722E-2,7.971529E-3,-2.4016285E-3,-6.112306E-3],"split_indices":[2,2,2,0,1,2,1,2,1,2,2,0,0,0,1,0,0,2,2,2,1,2,0,2,2,0,0,0,0,0,0,0,0,0,0,0,0,0,0,0,0,0,0,0,0,0,0,0,0,0,0,0,0,0,0,0,0,0,0],"split_type":[0,0,0,0,0,0,0,0,0,0,0,0,0,0,0,0,0,0,0,0,0,0,0,0,0,0,0,0,0,0,0,0,0,0,0,0,0,0,0,0,0,0,0,0,0,0,0,0,0,0,0,0,0,0,0,0,0,0,0],"sum_hessian":[2.496E3,1.149E3,1.347E3,3.89E2,7.6E2,1.163E3,1.84E2,2.32E2,1.57E2,6.06E2,1.54E2,9.62E2,2.01E2,1.17E2,6.7E1,1.17E2,1.15E2,3.8E1,1.19E2,4.54E2,1.52E2,1.16E2,3.8E1,7.59E2,2.03E2,1.04E2,9.7E1,1.01E2,1.6E1,5E1,1.7E1,4.1E1,7.6E1,7.8E1,3.7E1,1.9E1,1.9E1,5.8E1,6.1E1,1.52E2,3.02E2,1.8E1,1.34E2,4E1,7.6E1,1.9E1,1.9E1,1.53E2,6.06E2,1.6E2,4.3E1,2E1,8.4E1,2.1E1,7.6E1,1.8E1,8.3E1,1.9E1,3.1E1],"tree_param":{"num_deleted":"0","num_feature":"3","num_nodes":"59","size_leaf_vector":"1"}},{"base_weights":[-4.373876E-4,1.0517531E-1,-9.053692E-2,-7.402065E-2,1.968721E-1,-1.08530514E-1,2.3166215E-2,5.9445452E-2,-2.077916E-1,2.2197722E-1,-1.9610057E-2,-6.8547525E-2,-2.986052E-1,7.2889745E-2,-6.345942E-2,-2.6150925E-2,1.4707631E-1,-3.2275015E-1,-9.535347E-2,2.636308E-1,9.69368E-2,2.1820467E-2,-1.4499265E-2,-9.307952E-2,2.318222E-2,-9.610417E-2,-5.125236E-1,8.83129E-2,-2.3936804E-3,-4.3159876E-2,-1.1744926E-2,1.1766364E-2,-6.3575357E-3,2.7029505E-2,1.1359616E-2,-4.895557E-3,-3.896741E-2,5.8530094E-3,-1.3217221E-2,1.5888855E-2,3.163057E-2,3.0496109E-3,2.1733714E-2,-3.7176905E-3,5.1506427E-3,-1.8893778E-2,-6.8606287E-3,1.3761242E-2,-9.957316E-3,2.839956E-3,-1.2573327E-2,-3.5195034E-2,-5.5174556E-2,1.1652533E-2,4.689293E-3,-2.1734547E-3,-5.520196E-3],"categories":[],"categories_nodes":[],"categories_segments":[],"categories_sizes":[],"default_left":[0,0,0,0,0,0,0,0,0,0,0,0,0,0,0,0,0,0,0,0,0,0,0,0,0,0,0,0,0,0,0,0,0,0,0,0,0,0,0,0,0,0,0,0,0,0,0,0,0,0,0,0,0,0,0,0,0],"id":16,"left_children":[1,3,5,7,9,11,13,15,17,19,21,23,25,27,29,31,33,35,37,39,41,43,-1,45,47,49,51,53,-1,55,-1,-1,-1,-1,-1,-1,-1,-1,-1,-1,-1,-1,-1,-1,-1,-1,-1,-1,-1,-1,-1,-1,-1,-1,-1,-1,-1],"loss_changes":[2.3770113E1,1.8911018E1,2.7604246E0,6.9753685E0,4.1402473E0,8.825646E0,8.014821E-1,1.4740194E0,2.4897404E0,3.5265617E0,4.187371E-1,2.16921E0,8.701122E0,1.7833161E-1,6.9456786E-2,5.4569834E-1,3.6945748E-1,1.7399702E0,5.743159E-1,2.7690735E0,1.3692831E0,1.0874986E-1,0E0,1.769969E0,2.8792746E0,3.9090884E-1,4.230175E-1,1.1372876E-1,0E0,1.1958502E-2,0E0,0E0,0E0,0E0,0E0,0E0,0E0,0E0,0E0,0E0,0E0,0E0,0E0,0E0,0E0,0E0,0E0,0E0,0E0,0E0,0E0,0E0,0E0,0E0,0E0,0E0,0E0],"parents":[2147483647,0,0,1,1,2,2,3,3,4,4,5,5,6,6,7,7,8,8,9,9,10,10,11,11,12,12,13,13,14,14,15,15,16,16,17,17,18,18,19,19,20,20,21,21,23,23,24,24,25,25,26,26,27,27,29,29],"right_children":[2,4,6,8,10,12,14,16,18,20,22,24,26,28,30,32,34,36,38,40,42,44,-1,46,48,50,52,54,-1,56,-1,-1,-1,-1,-1,-1,-1,-1,-1,-1,-1,-1,-1,-1,-1,-1,-1,-1,-1,-1,-1,-1,-1,-1,-1,-1,-1],"split_conditions":[7E0,3E0,1.3E1,2.257E1,8.836E1,1.2E1,8.094E1,2E0,2E0,6E0,6E0,2.691E1,2.257E1,2.861E1,8.836E1,1.308E1,1.308E1,7.72E1,7.72E1,4E0,2.684E1,4E0,-1.4499265E-2,8E0,2.861E1,1.308E1,2.559E1,7.848E1,-2.3936804E-3,2.257E1,-1.1744926E-2,1.1766364E-2,-6.3575357E-3,2.7029505E-2,1.1359616E-2,-4.895557E-3,-3.896741E-2,5.8530094E-3,-1.3217221E-2,1.5888855E-2,3.163057E-2,3.0496109E-3,2.1733714E-2,-3.7176905E-3,5.1506427E-3,-1.8893778E-2,-6.8606287E-3,1.3761242E-2,-9.957316E-3,2.839956E-3,-1.2573327E-2,-3.5195034E-2,-5.5174556E-2,1.1652533E-2,4.689293E-3,-2.1734547E-3,-5.520196E-3],"split_indices":[2,2,2,0,1,2,1,2,2,2,2,0,0,0,1,0,0,1,1,2,0,2,0,2,0,0,0,1,0,0,0,0,0,0,0,0,0,0,0,0,0,0,0,0,0,0,0,0,0,0,0,0,0,0,0,0,0],"split_type":[0,0,0,0,0,0,0,0,0,0,0,0,0,0,0,0,0,0,0,0,0,0,0,0,0,0,0,0,0,0,0,0,0,0,0,0,0,0,0,0,0,0,0,0,0,0,0,0,0,0,0,0,0,0,0,0,0],"sum_hessian":[2.496E3,1.149E3,1.347E3,3.89E2,7.6E2,1.163E3,1.84E2,1.95E2,1.94E2,6.81E2,7.9E1,9.62E2,2.01E2,1.17E2,6.7E1,9.9E1,9.6E1,9.5E1,9.9E1,5.1E2,1.71E2,6E1,1.9E1,7.59E2,2.03E2,1.04E2,9.7E1,1.01E2,1.6E1,5E1,1.7E1,2E1,7.9E1,1.9E1,7.7E1,1.9E1,7.6E1,1.9E1,8E1,1.72E2,3.38E2,1.11E2,6E1,2E1,4E1,1.53E2,6.06E2,1.05E2,9.8E1,2E1,8.4E1,2.1E1,7.6E1,5.9E1,4.2E1,1.9E1,3.1E1],"tree_param":{"num_deleted":"0","num_feature":"3","num_nodes":"57","size_leaf_vector":"1"}},{"base_weights":[-4.2391548E-4,9.470291E-2,-8.1577785E-2,-6.663759E-2,1.7726281E-1,4.5409307E-2,-9.470854E-2,3.51657E-2,-2.1634346E-1,2.4728844E-1,1.0713977E-1,2.7552648E-2,1.4546017E-2,-1.8216543E-2,-1.1784875E-1,-3.355112E-2,1.0476414E-1,4.4435416E-3,-2.8629637E-1,2.8675264E-1,1.2755312E-1,4.1951455E-2,2.0337993E-1,7.500853E-2,-2.2171091E-2,-1.5047427E-1,3.146768E-2,-7.200834E-2,-1.5361726E-1,5.4780417E-3,-8.129623E-3,1.5268802E-2,2.3759792E-4,-4.430467E-3,5.2969577E-3,-4.310596E-2,-1.43920155E-2,3.176732E-2,1.4209571E-2,-1.166756E-2,1.8540945E-2,1.4822857E-2,-6.655817E-3,-2.8172738E-3,2.7426187E-2,-1.4226682E-3,2.1356417E-2,-5.10832E-3,2.5694757E-3,-4.941457E-2,1.4075008E-2,1.7902154E-2,-6.7940257E-3,-8.853835E-3,2.3000855E-3,-1.0188549E-2,-2.9145911E-2],"categories":[],"categories_nodes":[],"categories_segments":[],"categories_sizes":[],"default_left":[0,0,0,0,0,0,0,0,0,0,0,0,0,0,0,0,0,0,0,0,0,0,0,0,0,0,0,0,0,0,0,0,0,0,0,0,0,0,0,0,0,0,0,0,0,0,0,0,0,0,0,0,0,0,0,0,0],"id":17,"left_children":[1,3,5,7,9,11,13,15,17,19,21,23,-1,25,27,29,31,33,35,37,39,41,43,45,47,49,51,53,55,-1,-1,-1,-1,-1,-1,-1,-1,-1,-1,-1,-1,-1,-1,-1,-1,-1,-1,-1,-1,-1,-1,-1,-1,-1,-1,-1,-1],"loss_changes":[1.928434E1,1.5330105E1,2.2520065E0,5.9514227E0,3.710331E0,2.228871E-1,2.160842E0,1.1178569E0,2.441534E0,1.7590218E0,2.3880348E0,2.5886858E-1,0E0,1.8775048E0,1.5269232E0,5.021065E-1,5.688305E-1,9.460354E-2,2.4112625E0,1.2296295E0,1.3781297E0,2.6507144E0,2.5353146E0,6.954245E-1,7.604331E-2,7.876219E0,3.0631118E0,6.5065384E-1,3.7211075E0,0E0,0E0,0E0,0E0,0E0,0E0,0E0,0E0,0E0,0E0,0E0,0E0,0E0,0E0,0E0,0E0,0E0,0E0,0E0,0E0,0E0,0E0,0E0,0E0,0E0,0E0,0E0,0E0],"parents":[2147483647,0,0,1,1,2,2,3,3,4,4,5,5,6,6,7,7,8,8,9,9,10,10,11,11,13,13,14,14,15,15,16,16,17,17,18,18,19,19,20,20,21,21,22,22,23,23,24,24,25,25,26,26,27,27,28,28],"right_children":[2,4,6,8,10,12,14,16,18,20,22,24,-1,26,28,30,32,34,36,38,40,42,44,46,48,50,52,54,56,-1,-1,-1,-1,-1,-1,-1,-1,-1,-1,-1,-1,-1,-1,-1,-1,-1,-1,-1,-1,-1,-1,-1,-1,-1,-1,-1,-1],"split_conditions":[7E0,3E0,1.308E1,2.559E1,8.027E1,1.3E1,7.72E1,2E0,7.72E1,6E0,2.559E1,1E1,1.4546017E-2,9E0,2.257E1,1.738E1,2.029E1,2E0,2E0,2.861E1,7.578E1,5E0,4E0,9E0,1.2E1,2.029E1,1.1E1,1.3E1,1.2E1,5.4780417E-3,-8.129623E-3,1.5268802E-2,2.3759792E-4,-4.430467E-3,5.2969577E-3,-4.310596E-2,-1.43920155E-2,3.176732E-2,1.4209571E-2,-1.166756E-2,1.8540945E-2,1.4822857E-2,-6.655817E-3,-2.8172738E-3,2.7426187E-2,-1.4226682E-3,2.1356417E-2,-5.10832E-3,2.5694757E-3,-4.941457E-2,1.4075008E-2,1.7902154E-2,-6.7940257E-3,-8.853835E-3,2.3000855E-3,-1.0188549E-2,-2.9145911E-2],"split_indices":[2,2,0,0,1,2,1,2,1,2,0,2,0,2,0,0,0,2,2,0,1,2,2,2,2,0,2,2,2,0,0,0,0,0,0,0,0,0,0,0,0,0,0,0,0,0,0,0,0,0,0,0,0,0,0,0,0],"split_type":[0,0,0,0,0,0,0,0,0,0,0,0,0,0,0,0,0,0,0,0,0,0,0,0,0,0,0,0,0,0,0,0,0,0,0,0,0,0,0,0,0,0,0,0,0,0,0,0,0,0,0,0,0,0,0,0,0],"sum_hessian":[2.496E3,1.149E3,1.347E3,3.89E2,7.6E2,1.26E2,1.221E3,2.32E2,1.57E2,3.79E2,3.81E2,1.08E2,1.8E1,2.84E2,9.37E2,1.17E2,1.15E2,3.8E1,1.19E2,2.84E2,9.5E1,2.28E2,1.53E2,5.5E1,5.3E1,7.7E1,2.07E2,4.12E2,5.25E2,4.1E1,7.6E1,7.8E1,3.7E1,1.9E1,1.9E1,5.8E1,6.1E1,2.33E2,5.1E1,1.8E1,7.7E1,1.15E2,1.13E2,3.6E1,1.17E2,3.4E1,2.1E1,3.3E1,2E1,3.5E1,4.2E1,8.3E1,1.24E2,3.51E2,6.1E1,3.83E2,1.42E2],"tree_param":{"num_deleted":"0","num_feature":"3","num_nodes":"57","size_leaf_vector":"1"}},{"base_weights":[-3.8007455E-4,8.526895E-2,-7.344832E-2,-6.0086112E-2,1.5964898E-1,-8.986407E-2,3.0234775E-2,3.1704336E-2,-1.9506769E-1,2.2269864E-1,9.65115E-2,-5.5311237E-2,-2.5414383E-1,8.0178306E-2,-2.4537778E-2,-3.0218448E-2,9.442145E-2,4.0212106E-3,-2.5814602E-1,2.5823864E-1,1.14869505E-1,5.9572857E-2,2.3971374E-1,-7.2943857E-3,-8.769949E-2,-8.042447E-2,-4.376784E-1,9.4809756E-2,5.7473744E-4,1.326533E-2,-5.566818E-2,1.0124045E-2,-5.807986E-3,1.8382533E-2,4.6751625E-3,-4.009589E-3,4.7937254E-3,-3.886844E-2,-1.2976037E-2,3.354245E-2,2.0405158E-2,-1.0562196E-2,1.671063E-2,1.3983436E-2,-2.4296255E-3,-8.173528E-3,3.175466E-2,-6.983266E-3,3.2676675E-3,-7.6845014E-3,-1.431297E-2,2.3247448E-3,-1.0509136E-2,-2.9053384E-2,-4.7403555E-2,2.574451E-3,1.1555968E-2,1.6545383E-3,8.9940074E-4,-2.1855047E-3,-7.6354663E-3],"categories":[],"categories_nodes":[],"categories_segments":[],"categories_sizes":[],"default_left":[0,0,0,0,0,0,0,0,0,0,0,0,0,0,0,0,0,0,0,0,0,0,0,0,0,0,0,0,0,0,0,0,0,0,0,0,0,0,0,0,0,0,0,0,0,0,0,0,0,0,0,0,0,0,0,0,0,0,0,0,0],"id":18,"left_children":[1,3,5,7,9,11,13,15,17,19,21,23,25,27,29,31,33,35,37,39,41,43,45,47,49,51,53,55,-1,57,59,-1,-1,-1,-1,-1,-1,-1,-1,-1,-1,-1,-1,-1,-1,-1,-1,-1,-1,-1,-1,-1,-1,-1,-1,-1,-1,-1,-1,-1,-1],"loss_changes":[1.5633049E1,1.2442836E1,2.29706E0,4.8382916E0,3.0078945E0,6.593191E0,5.080413E-1,9.077362E-1,1.9852333E0,1.42659E0,2.006384E0,1.4970005E0,6.4052687E0,1.05091214E-1,1.0547596E-1,4.380705E-1,4.857825E-1,7.748257E-2,1.9606738E0,1.12356E0,1.1233554E0,2.0564928E0,1.9774604E0,9.746734E-1,3.3495903E-1,2.709558E-1,3.865509E-1,1.1310595E-1,0E0,4.256079E-4,3.2605544E-2,0E0,0E0,0E0,0E0,0E0,0E0,0E0,0E0,0E0,0E0,0E0,0E0,0E0,0E0,0E0,0E0,0E0,0E0,0E0,0E0,0E0,0E0,0E0,0E0,0E0,0E0,0E0,0E0,0E0,0E0],"parents":[2147483647,0,0,1,1,2,2,3,3,4,4,5,5,6,6,7,7,8,8,9,9,10,10,11,11,12,12,13,13,14,14,15,15,16,16,17,17,18,18,19,19,20,20,21,21,22,22,23,23,24,24,25,25,26,26,27,27,29,29,30,30],"right_children":[2,4,6,8,10,12,14,16,18,20,22,24,26,28,30,32,34,36,38,40,42,44,46,48,50,52,54,56,-1,58,60,-1,-1,-1,-1,-1,-1,-1,-1,-1,-1,-1,-1,-1,-1,-1,-1,-1,-1,-1,-1,-1,-1,-1,-1,-1,-1,-1,-1,-1,-1],"split_conditions":[7E0,3E0,1.3E1,2.559E1,8.027E1,1.2E1,8.027E1,2E0,7.72E1,6E0,2.684E1,7.848E1,2.257E1,2.861E1,8.513E1,1.308E1,1.738E1,2E0,2E0,7.72E1,7.578E1,5E0,4E0,9E0,8.836E1,1.308E1,2.559E1,7.578E1,5.7473744E-4,1.738E1,2.257E1,1.0124045E-2,-5.807986E-3,1.8382533E-2,4.6751625E-3,-4.009589E-3,4.7937254E-3,-3.886844E-2,-1.2976037E-2,3.354245E-2,2.0405158E-2,-1.0562196E-2,1.671063E-2,1.3983436E-2,-2.4296255E-3,-8.173528E-3,3.175466E-2,-6.983266E-3,3.2676675E-3,-7.6845014E-3,-1.431297E-2,2.3247448E-3,-1.0509136E-2,-2.9053384E-2,-4.7403555E-2,2.574451E-3,1.1555968E-2,1.6545383E-3,8.9940074E-4,-2.1855047E-3,-7.6354663E-3],"split_indices":[2,2,2,0,1,2,1,2,1,2,0,1,0,0,1,0,0,2,2,1,1,2,2,2,1,0,0,1,0,0,0,0,0,0,0,0,0,0,0,0,0,0,0,0,0,0,0,0,0,0,0,0,0,0,0,0,0,0,0,0,0],"split_type":[0,0,0,0,0,0,0,0,0,0,0,0,0,0,0,0,0,0,0,0,0,0,0,0,0,0,0,0,0,0,0,0,0,0,0,0,0,0,0,0,0,0,0,0,0,0,0,0,0,0,0,0,0,0,0,0,0,0,0,0,0],"sum_hessian":[2.496E3,1.149E3,1.347E3,3.89E2,7.6E2,1.163E3,1.84E2,2.32E2,1.57E2,3.79E2,3.81E2,9.62E2,2.01E2,9.6E1,8.8E1,1.17E2,1.15E2,3.8E1,1.19E2,2.84E2,9.5E1,3.04E2,7.7E1,3.88E2,5.74E2,1.04E2,9.7E1,8E1,1.6E1,4E1,4.8E1,2E1,9.7E1,3.9E1,7.6E1,1.9E1,1.9E1,5.8E1,6.1E1,1.15E2,1.69E2,1.8E1,7.7E1,1.55E2,1.49E2,1.5E1,6.2E1,1.51E2,2.37E2,4.82E2,9.2E1,2E1,8.4E1,2.1E1,7.6E1,1.9E1,6.1E1,2.1E1,1.9E1,1.9E1,2.9E1],"tree_param":{"num_deleted":"0","num_feature":"3","num_nodes":"61","size_leaf_vector":"1"}},{"base_weights":[-3.5463576E-4,7.680422E-2,-6.617981E-2,-5.4138288E-2,1.4380918E-1,-8.0972426E-2,2.725146E-2,6.807303E-2,-1.3945082E-1,1.637824E-1,-2.8260145E-2,-4.980676E-2,-2.2914848E-1,7.231199E-2,-2.2165647E-2,1.1899156E-2,1.2622945E-1,-2.2651565E-1,-5.4893386E-2,1.9635968E-1,6.604538E-2,3.1301389E-3,-1.225875E-2,-6.868333E-2,2.0761874E-2,-7.2459996E-2,-3.9469075E-1,8.5503094E-2,5.206585E-4,1.2001084E-2,-5.0301775E-2,9.159836E-3,-1.4856119E-3,2.1264823E-2,9.531938E-3,-3.6286653E-3,-2.6458016E-2,-3.0844288E-3,-1.584329E-2,1.0556231E-2,2.4211656E-2,2.6171634E-3,1.9697448E-2,-6.1070533E-3,3.5937063E-3,-1.4850423E-2,-4.8319083E-3,8.010762E-3,-1.9686144E-2,-1.622889E-2,-4.6694637E-3,-2.62801E-2,-4.272477E-2,2.329879E-3,1.0418992E-2,1.4965967E-3,8.139658E-4,-1.9778968E-3,-6.8973587E-3],"categories":[],"categories_nodes":[],"categories_segments":[],"categories_sizes":[],"default_left":[0,0,0,0,0,0,0,0,0,0,0,0,0,0,0,0,0,0,0,0,0,0,0,0,0,0,0,0,0,0,0,0,0,0,0,0,0,0,0,0,0,0,0,0,0,0,0,0,0,0,0,0,0,0,0,0,0,0,0],"id":19,"left_children":[1,3,5,7,9,11,13,15,17,19,21,23,25,27,29,31,33,35,37,39,41,43,-1,45,47,49,51,53,-1,55,57,-1,-1,-1,-1,-1,-1,-1,-1,-1,-1,-1,-1,-1,-1,-1,-1,-1,-1,-1,-1,-1,-1,-1,-1,-1,-1,-1,-1],"loss_changes":[1.2687334E1,1.0097652E1,1.8652678E0,4.0756936E0,2.620017E0,5.3639436E0,4.135536E-1,5.2446425E-1,1.6808214E0,2.1585236E0,2.3726071E-1,1.2842321E0,5.210992E0,8.54187E-2,8.616111E-2,1.7834781E-1,1.9075632E-1,8.0862904E-1,2.8893697E-1,2.0974445E0,8.927937E-1,1.3067451E-1,0E0,1.2281988E0,2.6504333E0,2.3544174E-1,3.0852318E-1,9.172702E-2,0E0,3.4757797E-4,2.6561677E-2,0E0,0E0,0E0,0E0,0E0,0E0,0E0,0E0,0E0,0E0,0E0,0E0,0E0,0E0,0E0,0E0,0E0,0E0,0E0,0E0,0E0,0E0,0E0,0E0,0E0,0E0,0E0,0E0],"parents":[2147483647,0,0,1,1,2,2,3,3,4,4,5,5,6,6,7,7,8,8,9,9,10,10,11,11,12,12,13,13,14,14,15,15,16,16,17,17,18,18,19,19,20,20,21,21,23,23,24,24,25,25,26,26,27,27,29,29,30,30],"right_children":[2,4,6,8,10,12,14,16,18,20,22,24,26,28,30,32,34,36,38,40,42,44,-1,46,48,50,52,54,-1,56,58,-1,-1,-1,-1,-1,-1,-1,-1,-1,-1,-1,-1,-1,-1,-1,-1,-1,-1,-1,-1,-1,-1,-1,-1,-1,-1,-1,-1],"split_conditions":[7E0,3E0,1.3E1,2.029E1,8.836E1,1.2E1,8.027E1,2E0,2E0,6E0,6E0,2.691E1,2.257E1,2.861E1,8.513E1,1.308E1,1.308E1,7.72E1,2.861E1,4E0,2.691E1,4E0,-1.225875E-2,8E0,1.1E1,7.578E1,2.559E1,7.578E1,5.206585E-4,1.738E1,2.257E1,9.159836E-3,-1.4856119E-3,2.1264823E-2,9.531938E-3,-3.6286653E-3,-2.6458016E-2,-3.0844288E-3,-1.584329E-2,1.0556231E-2,2.4211656E-2,2.6171634E-3,1.9697448E-2,-6.1070533E-3,3.5937063E-3,-1.4850423E-2,-4.8319083E-3,8.010762E-3,-1.9686144E-2,-1.622889E-2,-4.6694637E-3,-2.62801E-2,-4.272477E-2,2.329879E-3,1.0418992E-2,1.4965967E-3,8.139658E-4,-1.9778968E-3,-6.8973587E-3],"split_indices":[2,2,2,0,1,2,1,2,2,2,2,0,0,0,1,0,0,1,0,2,0,2,0,2,2,1,0,1,0,0,0,0,0,0,0,0,0,0,0,0,0,0,0,0,0,0,0,0,0,0,0,0,0,0,0,0,0,0,0],"split_type":[0,0,0,0,0,0,0,0,0,0,0,0,0,0,0,0,0,0,0,0,0,0,0,0,0,0,0,0,0,0,0,0,0,0,0,0,0,0,0,0,0,0,0,0,0,0,0,0,0,0,0,0,0,0,0,0,0,0,0],"sum_hessian":[2.496E3,1.149E3,1.347E3,3.89E2,7.6E2,1.163E3,1.84E2,1.6E2,2.29E2,6.81E2,7.9E1,9.62E2,2.01E2,9.6E1,8.8E1,8.2E1,7.8E1,1.12E2,1.17E2,5.1E2,1.71E2,6E1,1.9E1,7.59E2,2.03E2,1.04E2,9.7E1,8E1,1.6E1,4E1,4.8E1,2E1,6.2E1,1.9E1,5.9E1,1.9E1,9.3E1,9.6E1,2.1E1,1.72E2,3.38E2,1.32E2,3.9E1,2E1,4E1,1.53E2,6.06E2,1.6E2,4.3E1,2.2E1,8.2E1,2.1E1,7.6E1,1.9E1,6.1E1,2.1E1,1.9E1,1.9E1,2.9E1],"tree_param":{"num_deleted":"0","num_feature":"3","num_nodes":"59","size_leaf_vector":"1"}},{"base_weights":[-3.5238362E-4,6.9151334E-2,-5.9646837E-2,-4.875143E-2,1.294837E-1,-7.29794E-2,2.4562586E-2,2.8576821E-2,-1.6247757E-1,1.8353413E-1,7.5377285E-2,-4.48587E-2,-2.0667864E-1,6.521765E-2,-2.0022852E-2,1.3973233E-1,5.5108536E-3,6.909927E-3,-2.1617453E-1,2.1307679E-1,9.391757E-2,2.3011964E-2,1.5275574E-1,-4.5713317E-3,-7.203597E-2,-6.541295E-2,-3.5592577E-1,7.711027E-2,4.7165086E-4,1.0857233E-2,-4.545266E-2,8.28745E-3,1.9244645E-2,-4.194198E-3,5.3396085E-3,-3.2839358E-3,4.6313717E-3,-3.2446515E-2,-1.0963709E-2,2.3988565E-2,8.8339215E-3,-9.809507E-3,1.3948581E-2,1.0933631E-2,-6.5028705E-3,-4.0325513E-3,2.1200364E-2,-8.609171E-3,2.2803904E-3,-6.2238663E-3,-1.2214418E-2,2.5480862E-3,-8.709951E-3,-2.3771537E-2,-3.8507774E-2,2.1085453E-3,9.393907E-3,1.3537213E-3,7.3663954E-4,-1.7899942E-3,-6.2306053E-3],"categories":[],"categories_nodes":[],"categories_segments":[],"categories_sizes":[],"default_left":[0,0,0,0,0,0,0,0,0,0,0,0,0,0,0,0,0,0,0,0,0,0,0,0,0,0,0,0,0,0,0,0,0,0,0,0,0,0,0,0,0,0,0,0,0,0,0,0,0,0,0,0,0,0,0,0,0,0,0,0,0],"id":20,"left_children":[1,3,5,7,9,11,13,15,17,19,21,23,25,27,29,31,33,35,37,39,41,43,45,47,49,51,53,55,-1,57,59,-1,-1,-1,-1,-1,-1,-1,-1,-1,-1,-1,-1,-1,-1,-1,-1,-1,-1,-1,-1,-1,-1,-1,-1,-1,-1,-1,-1,-1,-1],"loss_changes":[1.0294724E1,8.186667E0,1.5152283E0,3.4343977E0,2.211691E0,4.3670382E0,3.3664125E-1,5.966208E-1,1.4385972E0,9.86043E-1,1.5443289E0,1.0540601E0,4.2355843E0,6.942943E-2,7.038294E-2,1.0393953E-1,4.430638E-1,6.260553E-2,1.3488674E0,9.318695E-1,8.5365194E-1,1.7475221E0,1.7702556E0,8.70071E-1,2.746799E-1,2.091926E-1,2.4617577E-1,7.438862E-2,0E0,2.838499E-4,2.1638207E-2,0E0,0E0,0E0,0E0,0E0,0E0,0E0,0E0,0E0,0E0,0E0,0E0,0E0,0E0,0E0,0E0,0E0,0E0,0E0,0E0,0E0,0E0,0E0,0E0,0E0,0E0,0E0,0E0,0E0,0E0],"parents":[2147483647,0,0,1,1,2,2,3,3,4,4,5,5,6,6,7,7,8,8,9,9,10,10,11,11,12,12,13,13,14,14,15,15,16,16,17,17,18,18,19,19,20,20,21,21,22,22,23,23,24,24,25,25,26,26,27,27,29,29,30,30],"right_children":[2,4,6,8,10,12,14,16,18,20,22,24,26,28,30,32,34,36,38,40,42,44,46,48,50,52,54,56,-1,58,60,-1,-1,-1,-1,-1,-1,-1,-1,-1,-1,-1,-1,-1,-1,-1,-1,-1,-1,-1,-1,-1,-1,-1,-1,-1,-1,-1,-1,-1,-1],"split_conditions":[7E0,3E0,1.3E1,2.559E1,8.027E1,1.2E1,8.027E1,1.308E1,7.72E1,6E0,2.559E1,7.848E1,2.257E1,2.861E1,8.513E1,2E0,2E0,2E0,2E0,2.861E1,7.578E1,5E0,4E0,7.578E1,8.836E1,1.308E1,2.559E1,7.578E1,4.7165086E-4,1.738E1,2.257E1,8.28745E-3,1.9244645E-2,-4.194198E-3,5.3396085E-3,-3.2839358E-3,4.6313717E-3,-3.2446515E-2,-1.0963709E-2,2.3988565E-2,8.8339215E-3,-9.809507E-3,1.3948581E-2,1.0933631E-2,-6.5028705E-3,-4.0325513E-3,2.1200364E-2,-8.609171E-3,2.2803904E-3,-6.2238663E-3,-1.2214418E-2,2.5480862E-3,-8.709951E-3,-2.3771537E-2,-3.8507774E-2,2.1085453E-3,9.393907E-3,1.3537213E-3,7.3663954E-4,-1.7899942E-3,-6.2306053E-3],"split_indices":[2,2,2,0,1,2,1,0,1,2,0,1,0,0,1,2,2,2,2,0,1,2,2,1,1,0,0,1,0,0,0,0,0,0,0,0,0,0,0,0,0,0,0,0,0,0,0,0,0,0,0,0,0,0,0,0,0,0,0,0,0],"split_type":[0,0,0,0,0,0,0,0,0,0,0,0,0,0,0,0,0,0,0,0,0,0,0,0,0,0,0,0,0,0,0,0,0,0,0,0,0,0,0,0,0,0,0,0,0,0,0,0,0,0,0,0,0,0,0,0,0,0,0,0,0],"sum_hessian":[2.496E3,1.149E3,1.347E3,3.89E2,7.6E2,1.163E3,1.84E2,2.32E2,1.57E2,3.79E2,3.81E2,9.62E2,2.01E2,9.6E1,8.8E1,3.9E1,1.93E2,3.8E1,1.19E2,2.84E2,9.5E1,2.28E2,1.53E2,3.88E2,5.74E2,1.04E2,9.7E1,8E1,1.6E1,4E1,4.8E1,2E1,1.9E1,9.7E1,9.6E1,1.9E1,1.9E1,5.8E1,6.1E1,2.33E2,5.1E1,1.8E1,7.7E1,1.15E2,1.13E2,3.6E1,1.17E2,9.7E1,2.91E2,4.82E2,9.2E1,2E1,8.4E1,2.1E1,7.6E1,1.9E1,6.1E1,2.1E1,1.9E1,1.9E1,2.9E1],"tree_param":{"num_deleted":"0","num_feature":"3","num_nodes":"61","size_leaf_vector":"1"}},{"base_weights":[-3.3394928E-4,6.2275548E-2,-5.374685E-2,-4.391055E-2,1.16612345E-1,-6.576159E-2,2.21391E-2,5.786251E-2,-1.14960775E-1,1.3342033E-1,-2.8133383E-2,-4.039861E-2,-1.8634963E-1,5.8819473E-2,-1.8087136E-2,1.19378995E-2,1.0537998E-1,-1.8562506E-1,-4.63165E-2,1.6092019E-1,5.0944503E-2,-2.5474047E-3,-1.0476395E-2,1.935101E-2,-5.6283988E-2,-5.8930404E-2,-3.2096872E-1,6.95414E-2,4.2726574E-4,9.82245E-3,-4.1070927E-2,7.498171E-3,-9.266195E-4,1.74164E-2,8.069564E-3,-2.9719581E-3,-2.1682171E-2,-2.6214195E-3,-1.328441E-2,8.138066E-3,2.0103646E-2,1.6508828E-3,1.6416952E-2,-6.5667243E-3,2.98444E-3,-1.2618408E-2,1.0929058E-2,2.98639E-3,-6.7592873E-3,-1.3843461E-2,-3.6189116E-3,-2.1502439E-2,-3.470701E-2,1.9082308E-3,8.46969E-3,1.2245005E-3,6.6665176E-4,-1.6199399E-3,-5.628292E-3],"categories":[],"categories_nodes":[],"categories_segments":[],"categories_sizes":[],"default_left":[0,0,0,0,0,0,0,0,0,0,0,0,0,0,0,0,0,0,0,0,0,0,0,0,0,0,0,0,0,0,0,0,0,0,0,0,0,0,0,0,0,0,0,0,0,0,0,0,0,0,0,0,0,0,0,0,0,0,0],"id":21,"left_children":[1,3,5,7,9,11,13,15,17,19,21,23,25,27,29,31,33,35,37,39,41,43,-1,45,47,49,51,53,-1,55,57,-1,-1,-1,-1,-1,-1,-1,-1,-1,-1,-1,-1,-1,-1,-1,-1,-1,-1,-1,-1,-1,-1,-1,-1,-1,-1,-1,-1],"loss_changes":[8.353702E0,6.640405E0,1.2304947E0,2.8267417E0,1.8551779E0,3.5525327E0,2.740338E-1,3.500796E-1,1.1070635E0,1.5386286E0,1.5658656E-1,9.151162E-1,3.446003E0,5.6433022E-2,5.7494074E-2,1.1164811E-1,1.2007892E-1,5.4315734E-1,2.0176733E-1,1.6141539E0,6.679143E-1,1.2667829E-1,0E0,2.6709316E0,7.434125E-1,1.8483305E-1,1.9637012E-1,6.0327142E-2,0E0,2.3183087E-4,1.7627187E-2,0E0,0E0,0E0,0E0,0E0,0E0,0E0,0E0,0E0,0E0,0E0,0E0,0E0,0E0,0E0,0E0,0E0,0E0,0E0,0E0,0E0,0E0,0E0,0E0,0E0,0E0,0E0,0E0],"parents":[2147483647,0,0,1,1,2,2,3,3,4,4,5,5,6,6,7,7,8,8,9,9,10,10,11,11,12,12,13,13,14,14,15,15,16,16,17,17,18,18,19,19,20,20,21,21,23,23,24,24,25,25,26,26,27,27,29,29,30,30],"right_children":[2,4,6,8,10,12,14,16,18,20,22,24,26,28,30,32,34,36,38,40,42,44,-1,46,48,50,52,54,-1,56,58,-1,-1,-1,-1,-1,-1,-1,-1,-1,-1,-1,-1,-1,-1,-1,-1,-1,-1,-1,-1,-1,-1,-1,-1,-1,-1,-1,-1],"split_conditions":[7E0,3E0,1.3E1,2.029E1,8.836E1,1.2E1,8.027E1,2E0,2E0,6E0,6E0,7.72E1,2.257E1,2.861E1,8.513E1,1.308E1,1.308E1,7.72E1,2.861E1,4E0,2.691E1,4E0,-1.0476395E-2,9E0,1.308E1,7.578E1,2.559E1,7.578E1,4.2726574E-4,1.738E1,2.257E1,7.498171E-3,-9.266195E-4,1.74164E-2,8.069564E-3,-2.9719581E-3,-2.1682171E-2,-2.6214195E-3,-1.328441E-2,8.138066E-3,2.0103646E-2,1.6508828E-3,1.6416952E-2,-6.5667243E-3,2.98444E-3,-1.2618408E-2,1.0929058E-2,2.98639E-3,-6.7592873E-3,-1.3843461E-2,-3.6189116E-3,-2.1502439E-2,-3.470701E-2,1.9082308E-3,8.46969E-3,1.2245005E-3,6.6665176E-4,-1.6199399E-3,-5.628292E-3],"split_indices":[2,2,2,0,1,2,1,2,2,2,2,1,0,0,1,0,0,1,0,2,0,2,0,2,0,1,0,1,0,0,0,0,0,0,0,0,0,0,0,0,0,0,0,0,0,0,0,0,0,0,0,0,0,0,0,0,0,0,0],"split_type":[0,0,0,0,0,0,0,0,0,0,0,0,0,0,0,0,0,0,0,0,0,0,0,0,0,0,0,0,0,0,0,0,0,0,0,0,0,0,0,0,0,0,0,0,0,0,0,0,0,0,0,0,0,0,0,0,0,0,0],"sum_hessian":[2.496E3,1.149E3,1.347E3,3.89E2,7.6E2,1.163E3,1.84E2,1.6E2,2.29E2,6.81E2,7.9E1,9.62E2,2.01E2,9.6E1,8.8E1,8.2E1,7.8E1,1.12E2,1.17E2,5.1E2,1.71E2,6E1,1.9E1,2.02E2,7.6E2,1.04E2,9.7E1,8E1,1.6E1,4E1,4.8E1,2E1,6.2E1,1.9E1,5.9E1,1.9E1,9.3E1,9.6E1,2.1E1,1.72E2,3.38E2,1.32E2,3.9E1,2E1,4E1,7.7E1,1.25E2,8.8E1,6.72E2,2.2E1,8.2E1,2.1E1,7.6E1,1.9E1,6.1E1,2.1E1,1.9E1,1.9E1,2.9E1],"tree_param":{"num_deleted":"0","num_feature":"3","num_nodes":"59","size_leaf_vector":"1"}},{"base_weights":[-3.205541E-4,5.6068707E-2,-4.842688E-2,-3.954124E-2,1.0499355E-1,3.7294615E-2,-5.7296112E-2,2.565487E-2,-1.3543461E-1,1.9918087E-1,8.096421E-2,7.2955735E-2,9.04021E-3,-2.9294149E-3,-7.37537E-2,8.286619E-2,-4.801158E-3,8.978605E-3,-1.8124029E-1,2.4329059E-1,6.2875554E-2,9.6910976E-2,-2.5495823E-2,-2.4756158E-3,1.89644E-2,-4.9718827E-2,6.0034238E-2,-7.461792E-2,6.487761E-2,-4.3266594E-2,-9.755108E-2,3.8940192E-3,1.2691684E-2,-4.0233596E-3,3.069363E-3,-2.689606E-3,4.440434E-3,-2.7125372E-2,-9.265914E-3,1.387655E-2,2.9647795E-2,-9.036579E-3,1.9852841E-2,1.3532315E-2,5.81331E-3,-2.3515108E-4,-9.481119E-3,-3.4483974E-3,2.0505383E-3,1.9283294E-4,-9.573455E-3,2.6500383E-3,9.393828E-3,-3.284482E-2,9.549055E-3,1.733972E-2,-8.256752E-3,-9.22653E-3,-2.3587155E-3,-2.8782927E-3,-1.5088855E-2],"categories":[],"categories_nodes":[],"categories_segments":[],"categories_sizes":[],"default_left":[0,0,0,0,0,0,0,0,0,0,0,0,0,0,0,0,0,0,0,0,0,0,0,0,0,0,0,0,0,0,0,0,0,0,0,0,0,0,0,0,0,0,0,0,0,0,0,0,0,0,0,0,0,0,0,0,0,0,0,0,0],"id":22,"left_children":[1,3,5,7,9,11,13,15,17,19,21,23,25,27,29,31,33,35,37,39,41,43,45,47,-1,49,51,53,55,57,59,-1,-1,-1,-1,-1,-1,-1,-1,-1,-1,-1,-1,-1,-1,-1,-1,-1,-1,-1,-1,-1,-1,-1,-1,-1,-1,-1,-1,-1,-1],"loss_changes":[6.7762775E0,5.3835096E0,1.0269997E0,2.4417057E0,1.706214E0,1.2730363E-1,1.0931616E0,4.063839E-1,1.0467887E0,9.1061115E-1,1.0346682E0,4.9337885E-1,2.1872276E-1,1.3902215E0,6.7631054E-1,1.5179032E-1,1.9365793E-1,5.0758865E-2,9.316852E-1,6.037507E-1,8.286575E-1,7.801013E-1,1.2811758E-1,2.6452547E-2,0E0,8.098836E-2,4.1850984E-2,6.0331993E0,2.3664176E0,3.9606607E-1,1.9249825E0,0E0,0E0,0E0,0E0,0E0,0E0,0E0,0E0,0E0,0E0,0E0,0E0,0E0,0E0,0E0,0E0,0E0,0E0,0E0,0E0,0E0,0E0,0E0,0E0,0E0,0E0,0E0,0E0,0E0,0E0],"parents":[2147483647,0,0,1,1,2,2,3,3,4,4,5,5,6,6,7,7,8,8,9,9,10,10,11,11,12,12,13,13,14,14,15,15,16,16,17,17,18,18,19,19,20,20,21,21,22,22,23,23,25,25,26,26,27,27,28,28,29,29,30,30],"right_children":[2,4,6,8,10,12,14,16,18,20,22,24,26,28,30,32,34,36,38,40,42,44,46,48,-1,50,52,54,56,58,60,-1,-1,-1,-1,-1,-1,-1,-1,-1,-1,-1,-1,-1,-1,-1,-1,-1,-1,-1,-1,-1,-1,-1,-1,-1,-1,-1,-1,-1,-1],"split_conditions":[7E0,3E0,1.308E1,2.559E1,7.72E1,1E1,7.72E1,1.738E1,7.72E1,6E0,8.836E1,9E0,1.2E1,2.029E1,2.257E1,2E0,2E0,2E0,2E0,4E0,2.029E1,5E0,6E0,8E0,1.89644E-2,1.1E1,1.3E1,1E1,1.1E1,9E0,1E1,3.8940192E-3,1.2691684E-2,-4.0233596E-3,3.069363E-3,-2.689606E-3,4.440434E-3,-2.7125372E-2,-9.265914E-3,1.387655E-2,2.9647795E-2,-9.036579E-3,1.9852841E-2,1.3532315E-2,5.81331E-3,-2.3515108E-4,-9.481119E-3,-3.4483974E-3,2.0505383E-3,1.9283294E-4,-9.573455E-3,2.6500383E-3,9.393828E-3,-3.284482E-2,9.549055E-3,1.733972E-2,-8.256752E-3,-9.22653E-3,-2.3587155E-3,-2.8782927E-3,-1.5088855E-2],"split_indices":[2,2,0,0,1,2,1,0,1,2,1,2,2,0,0,2,2,2,2,2,0,2,2,2,0,2,2,2,2,2,2,0,0,0,0,0,0,0,0,0,0,0,0,0,0,0,0,0,0,0,0,0,0,0,0,0,0,0,0,0,0],"split_type":[0,0,0,0,0,0,0,0,0,0,0,0,0,0,0,0,0,0,0,0,0,0,0,0,0,0,0,0,0,0,0,0,0,0,0,0,0,0,0,0,0,0,0,0,0,0,0,0,0,0,0,0,0,0,0,0,0,0,0,0,0],"sum_hessian":[2.496E3,1.149E3,1.347E3,3.89E2,7.6E2,1.26E2,1.221E3,2.32E2,1.57E2,1.53E2,6.07E2,5.5E1,7.1E1,2.84E2,9.37E2,8E1,1.52E2,3.8E1,1.19E2,1.15E2,3.8E1,5.28E2,7.9E1,3.4E1,2.1E1,3.3E1,3.8E1,1.38E2,1.46E2,4.12E2,5.25E2,4.1E1,3.9E1,7.6E1,7.6E1,1.9E1,1.9E1,5.8E1,6.1E1,4E1,7.5E1,1.8E1,2E1,2.64E2,2.64E2,6E1,1.9E1,1.4E1,2E1,1.6E1,1.7E1,2E1,1.8E1,5.5E1,8.3E1,8.4E1,6.2E1,1.17E2,2.95E2,2.3E2,2.95E2],"tree_param":{"num_deleted":"0","num_feature":"3","num_nodes":"61","size_leaf_vector":"1"}},{"base_weights":[-2.798528E-4,5.050103E-2,-4.3601617E-2,-3.5635788E-2,9.457838E-2,-5.4473635E-2,2.5039624E-2,2.3156563E-2,-1.2211036E-1,1.376255E-1,5.150904E-2,-3.1850714E-2,-1.620548E-1,4.3565057E-2,-2.7266989E-2,1.0645006E-1,5.8632833E-3,8.125813E-3,-1.6341953E-1,1.5957023E-1,7.104349E-2,2.2897158E-2,1.6272846E-1,1.800993E-2,-4.5109402E-2,-5.431651E-2,-2.7583507E-1,6.179042E-2,2.0521626E-2,-1.2419606E-3,-3.6256348E-3,6.413208E-3,1.45561425E-2,-2.7174845E-3,3.918156E-3,-2.4340714E-3,4.0186048E-3,-2.4458809E-2,-8.354268E-3,1.8271178E-2,5.2364594E-3,-8.180485E-3,1.0736497E-2,8.438793E-3,-4.1205892E-3,-1.0050449E-2,2.269983E-2,-1.0832593E-2,9.607491E-3,2.4312004E-3,-5.422292E-3,-1.3432692E-2,-3.1490535E-3,-2.1275261E-2,-3.156721E-2,8.197737E-4,7.951084E-3,1.3327837E-3,2.388118E-3],"categories":[],"categories_nodes":[],"categories_segments":[],"categories_sizes":[],"default_left":[0,0,0,0,0,0,0,0,0,0,0,0,0,0,0,0,0,0,0,0,0,0,0,0,0,0,0,0,0,0,0,0,0,0,0,0,0,0,0,0,0,0,0,0,0,0,0,0,0,0,0,0,0,0,0,0,0,0,0],"id":23,"left_children":[1,3,5,7,9,11,13,15,17,19,21,23,25,27,29,31,33,35,37,39,41,43,45,47,49,51,53,55,57,-1,-1,-1,-1,-1,-1,-1,-1,-1,-1,-1,-1,-1,-1,-1,-1,-1,-1,-1,-1,-1,-1,-1,-1,-1,-1,-1,-1,-1,-1],"loss_changes":[5.4953957E0,4.3695545E0,1.0073342E0,1.9856049E0,1.4038143E0,2.8277814E0,1.8045339E-1,3.3499315E-1,8.513596E-1,5.4389E-1,1.2118733E0,6.374389E-1,2.4612331E0,5.6268543E-2,6.089665E-3,5.6869417E-2,2.1461481E-1,4.157265E-2,7.575853E-1,6.974907E-1,5.417441E-1,1.2057098E0,1.3424132E0,2.012476E0,4.8278236E-1,1.8753311E-1,1.7911482E-1,7.15242E-2,1.1801254E-3,0E0,0E0,0E0,0E0,0E0,0E0,0E0,0E0,0E0,0E0,0E0,0E0,0E0,0E0,0E0,0E0,0E0,0E0,0E0,0E0,0E0,0E0,0E0,0E0,0E0,0E0,0E0,0E0,0E0,0E0],"parents":[2147483647,0,0,1,1,2,2,3,3,4,4,5,5,6,6,7,7,8,8,9,9,10,10,11,11,12,12,13,13,14,14,15,15,16,16,17,17,18,18,19,19,20,20,21,21,22,22,23,23,24,24,25,25,26,26,27,27,28,28],"right_children":[2,4,6,8,10,12,14,16,18,20,22,24,26,28,30,32,34,36,38,40,42,44,46,48,50,52,54,56,58,-1,-1,-1,-1,-1,-1,-1,-1,-1,-1,-1,-1,-1,-1,-1,-1,-1,-1,-1,-1,-1,-1,-1,-1,-1,-1,-1,-1,-1,-1],"split_conditions":[7E0,3E0,1.3E1,2.559E1,8.027E1,1.2E1,8.513E1,1.308E1,7.72E1,6E0,2.684E1,7.72E1,2.257E1,7.848E1,2.257E1,2E0,2E0,2E0,2E0,2.861E1,7.578E1,5E0,4E0,9E0,1.308E1,7.578E1,2.684E1,7.578E1,1.738E1,-1.2419606E-3,-3.6256348E-3,6.413208E-3,1.45561425E-2,-2.7174845E-3,3.918156E-3,-2.4340714E-3,4.0186048E-3,-2.4458809E-2,-8.354268E-3,1.8271178E-2,5.2364594E-3,-8.180485E-3,1.0736497E-2,8.438793E-3,-4.1205892E-3,-1.0050449E-2,2.269983E-2,-1.0832593E-2,9.607491E-3,2.4312004E-3,-5.422292E-3,-1.3432692E-2,-3.1490535E-3,-2.1275261E-2,-3.156721E-2,8.197737E-4,7.951084E-3,1.3327837E-3,2.388118E-3],"split_indices":[2,2,2,0,1,2,1,0,1,2,0,1,0,1,0,2,2,2,2,0,1,2,2,2,0,1,0,1,0,0,0,0,0,0,0,0,0,0,0,0,0,0,0,0,0,0,0,0,0,0,0,0,0,0,0,0,0,0,0],"split_type":[0,0,0,0,0,0,0,0,0,0,0,0,0,0,0,0,0,0,0,0,0,0,0,0,0,0,0,0,0,0,0,0,0,0,0,0,0,0,0,0,0,0,0,0,0,0,0,0,0,0,0,0,0,0,0,0,0,0,0],"sum_hessian":[2.496E3,1.149E3,1.347E3,3.89E2,7.6E2,1.163E3,1.84E2,2.32E2,1.57E2,3.79E2,3.81E2,9.62E2,2.01E2,1.36E2,4.8E1,3.9E1,1.93E2,3.8E1,1.19E2,2.84E2,9.5E1,3.04E2,7.7E1,2.02E2,7.6E2,1.04E2,9.7E1,7.5E1,6.1E1,1.9E1,2.9E1,2E1,1.9E1,9.7E1,9.6E1,1.9E1,1.9E1,5.8E1,6.1E1,2.33E2,5.1E1,1.8E1,7.7E1,1.55E2,1.49E2,1.5E1,6.2E1,7.7E1,1.25E2,8.8E1,6.72E2,2.2E1,8.2E1,4E1,5.7E1,1.9E1,5.6E1,2.1E1,4E1],"tree_param":{"num_deleted":"0","num_feature":"3","num_nodes":"59","size_leaf_vector":"1"}},{"base_weights":[-2.6468825E-4,4.548057E-2,-3.929049E-2,-9.473673E-3,1.0161043E-1,-4.9089618E-2,2.2576915E-2,1.0898576E-1,-9.2333116E-2,-6.2225364E-2,1.3968977E-1,-2.867011E-2,-1.4619306E-1,3.929971E-2,-2.4639413E-2,4.558671E-2,2.3521402E-1,-6.253427E-2,-2.4075304E-1,1.5802082E-1,-1.6998751E-1,1.9358285E-1,3.27355E-2,-4.117695E-2,1.8064534E-2,-4.9042836E-2,-2.4879083E-1,5.5726677E-2,1.852956E-2,-1.1239554E-3,-3.2751337E-3,1.1371877E-3,8.095689E-3,4.053051E-2,1.7176192E-2,-7.985292E-3,2.9389467E-4,-1.814823E-2,-3.8129166E-2,1.2107186E-2,1.9664004E-2,-3.060999E-2,-2.1591464E-3,2.450825E-2,1.0424501E-2,9.097951E-5,1.250073E-2,-1.0645024E-2,-2.4548837E-3,6.991636E-3,-1.7207656E-2,-1.2147843E-2,-2.8379445E-3,-2.2446448E-2,-3.5149496E-2,7.419038E-4,7.169907E-3,1.2055658E-3,2.1551424E-3],"categories":[],"categories_nodes":[],"categories_segments":[],"categories_sizes":[],"default_left":[0,0,0,0,0,0,0,0,0,0,0,0,0,0,0,0,0,0,0,0,0,0,0,0,0,0,0,0,0,0,0,0,0,0,0,0,0,0,0,0,0,0,0,0,0,0,0,0,0,0,0,0,0,0,0,0,0,0,0],"id":24,"left_children":[1,3,5,7,9,11,13,15,17,19,21,23,25,27,29,31,33,35,37,39,41,43,45,47,49,51,53,55,57,-1,-1,-1,-1,-1,-1,-1,-1,-1,-1,-1,-1,-1,-1,-1,-1,-1,-1,-1,-1,-1,-1,-1,-1,-1,-1,-1,-1,-1,-1],"loss_changes":[4.459545E0,3.5482228E0,8.183284E-1,5.722674E0,3.5585465E0,2.3037934E0,1.470423E-1,1.9099381E0,1.5019453E0,2.5901558E0,2.6566744E0,5.6361985E-1,2.0012121E0,4.5710534E-2,4.958121E-3,1.9391915E-1,7.9379463E-1,3.2566607E-1,4.0560246E-1,2.756226E-2,1.4678845E0,1.3869171E0,4.5799828E-1,8.222692E-1,2.0233002E0,1.5371287E-1,1.6594696E-1,5.8108747E-2,9.5310435E-4,0E0,0E0,0E0,0E0,0E0,0E0,0E0,0E0,0E0,0E0,0E0,0E0,0E0,0E0,0E0,0E0,0E0,0E0,0E0,0E0,0E0,0E0,0E0,0E0,0E0,0E0,0E0,0E0,0E0,0E0],"parents":[2147483647,0,0,1,1,2,2,3,3,4,4,5,5,6,6,7,7,8,8,9,9,10,10,11,11,12,12,13,13,14,14,15,15,16,16,17,17,18,18,19,19,20,20,21,21,22,22,23,23,24,24,25,25,26,26,27,27,28,28],"right_children":[2,4,6,8,10,12,14,16,18,20,22,24,26,28,30,32,34,36,38,40,42,44,46,48,50,52,54,56,58,-1,-1,-1,-1,-1,-1,-1,-1,-1,-1,-1,-1,-1,-1,-1,-1,-1,-1,-1,-1,-1,-1,-1,-1,-1,-1,-1,-1,-1,-1],"split_conditions":[7E0,4E0,1.3E1,2.029E1,1.738E1,1.2E1,8.513E1,3E0,2.861E1,5E0,6E0,2.691E1,2.257E1,7.848E1,2.257E1,2E0,1.308E1,2.691E1,3E0,1.308E1,6E0,8.513E1,2.691E1,8E0,1.1E1,7.578E1,2.861E1,7.578E1,1.738E1,-1.1239554E-3,-3.2751337E-3,1.1371877E-3,8.095689E-3,4.053051E-2,1.7176192E-2,-7.985292E-3,2.9389467E-4,-1.814823E-2,-3.8129166E-2,1.2107186E-2,1.9664004E-2,-3.060999E-2,-2.1591464E-3,2.450825E-2,1.0424501E-2,9.097951E-5,1.250073E-2,-1.0645024E-2,-2.4548837E-3,6.991636E-3,-1.7207656E-2,-1.2147843E-2,-2.8379445E-3,-2.2446448E-2,-3.5149496E-2,7.419038E-4,7.169907E-3,1.2055658E-3,2.1551424E-3],"split_indices":[2,2,2,0,0,2,1,2,0,2,2,0,0,1,0,2,0,0,2,0,2,1,0,2,2,1,0,1,0,0,0,0,0,0,0,0,0,0,0,0,0,0,0,0,0,0,0,0,0,0,0,0,0,0,0,0,0,0,0],"split_type":[0,0,0,0,0,0,0,0,0,0,0,0,0,0,0,0,0,0,0,0,0,0,0,0,0,0,0,0,0,0,0,0,0,0,0,0,0,0,0,0,0,0,0,0,0,0,0,0,0,0,0,0,0,0,0,0,0,0,0],"sum_hessian":[2.496E3,1.149E3,1.347E3,5.81E2,5.68E2,1.163E3,1.84E2,2.39E2,3.42E2,1.07E2,4.61E2,9.62E2,2.01E2,1.36E2,4.8E1,1.6E2,7.9E1,2.86E2,5.6E1,3.5E1,7.2E1,3.06E2,1.55E2,7.59E2,2.03E2,1.04E2,9.7E1,7.5E1,6.1E1,1.9E1,2.9E1,8.2E1,7.8E1,2E1,5.9E1,2.26E2,6E1,4.1E1,1.5E1,2E1,1.5E1,3.7E1,3.5E1,1.93E2,1.13E2,1.16E2,3.9E1,1.53E2,6.06E2,1.6E2,4.3E1,2.2E1,8.2E1,8.1E1,1.6E1,1.9E1,5.6E1,2.1E1,4E1],"tree_param":{"num_deleted":"0","num_feature":"3","num_nodes":"59","size_leaf_vector":"1"}},{"base_weights":[-2.5413051E-4,4.0975478E-2,-3.542757E-2,-7.0700586E-2,6.371173E-2,-4.4263136E-2,2.0356366E-2,-8.430469E-3,-1.6399768E-1,2.2750653E-2,9.153104E-2,-2.5827436E-2,-1.3193302E-1,3.545206E-2,-2.2265395E-2,5.6941374E-3,-2.2352695E-2,-2.2307218E-3,-2.0924872E-2,1.4403318E-1,-6.0302977E-2,-5.6012053E-2,1.2582351E-1,1.6989183E-2,-3.7215013E-2,-4.4281155E-2,-2.244995E-1,5.0258234E-2,1.6730746E-2,-1.0171843E-3,-2.9585583E-2,-5.4787E-4,-5.126128E-3,7.2963624E-3,2.1241395E-2,-3.3378452E-3,-2.005727E-2,1.4310126E-2,-1.5343763E-2,1.7433818E-2,2.9542588E-3,-9.840535E-3,8.828906E-3,2.5623445E-3,-4.5469706E-3,2.967839E-3,-6.203256E-3,-1.38362E-2,-2.4619462E-2,6.7141774E-4,6.465513E-3,1.0905006E-3,1.9448688E-3,-3.3136343E-3,-2.2393337E-3],"categories":[],"categories_nodes":[],"categories_segments":[],"categories_sizes":[],"default_left":[0,0,0,0,0,0,0,0,0,0,0,0,0,0,0,0,0,0,0,0,0,0,0,0,0,0,0,0,0,0,0,0,0,0,0,0,0,0,0,0,0,0,0,0,0,0,0,0,0,0,0,0,0,0,0],"id":25,"left_children":[1,3,5,7,9,11,13,15,17,19,21,23,25,27,29,-1,31,-1,-1,33,35,37,39,41,43,45,47,49,51,-1,53,-1,-1,-1,-1,-1,-1,-1,-1,-1,-1,-1,-1,-1,-1,-1,-1,-1,-1,-1,-1,-1,-1,-1,-1],"loss_changes":[3.622569E0,2.924464E0,6.653069E-1,1.1314938E0,1.0872879E0,1.8779142E0,1.198193E-1,1.0866714E-1,4.9544024E-1,3.9169917E0,2.88597E0,4.7016943E-1,1.6290114E0,3.7134305E-2,4.0368885E-3,0E0,4.7523882E-2,0E0,0E0,7.523484E-1,8.6572194E-1,2.11702E0,2.1528687E0,1.678894E0,3.9590502E-1,1.39694E-1,1.4907455E-1,4.7210246E-2,7.6962076E-4,0E0,2.410449E-5,0E0,0E0,0E0,0E0,0E0,0E0,0E0,0E0,0E0,0E0,0E0,0E0,0E0,0E0,0E0,0E0,0E0,0E0,0E0,0E0,0E0,0E0,0E0,0E0],"parents":[2147483647,0,0,1,1,2,2,3,3,4,4,5,5,6,6,7,7,8,8,9,9,10,10,11,11,12,12,13,13,14,14,16,16,19,19,20,20,21,21,22,22,23,23,24,24,25,25,26,26,27,27,28,28,30,30],"right_children":[2,4,6,8,10,12,14,16,18,20,22,24,26,28,30,-1,32,-1,-1,34,36,38,40,42,44,46,48,50,52,-1,54,-1,-1,-1,-1,-1,-1,-1,-1,-1,-1,-1,-1,-1,-1,-1,-1,-1,-1,-1,-1,-1,-1,-1,-1],"split_conditions":[7E0,2E0,1.3E1,2.559E1,4E0,1.2E1,8.513E1,1.308E1,7.72E1,2.029E1,1.738E1,7.72E1,2.257E1,7.848E1,2.257E1,5.6941374E-3,2.029E1,-2.2307218E-3,-2.0924872E-2,3E0,2.861E1,5E0,6E0,9E0,1.308E1,1.308E1,2.559E1,7.578E1,1.738E1,-1.0171843E-3,2.559E1,-5.4787E-4,-5.126128E-3,7.2963624E-3,2.1241395E-2,-3.3378452E-3,-2.005727E-2,1.4310126E-2,-1.5343763E-2,1.7433818E-2,2.9542588E-3,-9.840535E-3,8.828906E-3,2.5623445E-3,-4.5469706E-3,2.967839E-3,-6.203256E-3,-1.38362E-2,-2.4619462E-2,6.7141774E-4,6.465513E-3,1.0905006E-3,1.9448688E-3,-3.3136343E-3,-2.2393337E-3],"split_indices":[2,2,2,0,2,2,1,0,1,0,0,1,0,1,0,0,0,0,0,2,0,2,2,2,0,0,0,1,0,0,0,0,0,0,0,0,0,0,0,0,0,0,0,0,0,0,0,0,0,0,0,0,0,0,0],"split_type":[0,0,0,0,0,0,0,0,0,0,0,0,0,0,0,0,0,0,0,0,0,0,0,0,0,0,0,0,0,0,0,0,0,0,0,0,0,0,0,0,0,0,0,0,0,0,0,0,0,0,0,0,0,0,0],"sum_hessian":[2.496E3,1.149E3,1.347E3,1.94E2,9.55E2,1.163E3,1.84E2,1.17E2,7.7E1,3.87E2,5.68E2,9.62E2,2.01E2,1.36E2,4.8E1,2E1,9.7E1,1.9E1,5.8E1,1.57E2,2.3E2,1.07E2,4.61E2,2.02E2,7.6E2,1.04E2,9.7E1,7.5E1,6.1E1,1.9E1,2.9E1,6.2E1,3.5E1,7.8E1,7.9E1,1.94E2,3.6E1,3.5E1,7.2E1,3.06E2,1.55E2,7.7E1,1.25E2,8.8E1,6.72E2,2E1,8.4E1,2.1E1,7.6E1,1.9E1,5.6E1,2.1E1,4E1,1.7E1,1.2E1],"tree_param":{"num_deleted":"0","num_feature":"3","num_nodes":"55","size_leaf_vector":"1"}},{"base_weights":[-2.446106E-4,3.687912E-2,-3.1915266E-2,-6.374917E-2,5.736619E-2,-1.3465374E-2,-5.624849E-2,-7.5872065E-3,-1.4789484E-1,6.824258E-2,-3.7475336E-2,-4.3214303E-2,5.176657E-2,-9.086474E-2,1.8340167E-2,2.9896373E-2,-2.793426E-2,-2.0188105E-3,-1.8867858E-2,2.8264964E-2,9.5466E-2,-2.5180036E-2,-8.478278E-3,4.5056894E-2,-8.035237E-2,1.5045714E-1,-1.9943533E-3,-3.7510443E-2,-2.1225545E-1,3.1981092E-2,-2.0173034E-2,5.15186E-3,7.8980485E-4,-1.1546339E-3,-4.627755E-3,1.2981049E-2,-5.5445745E-3,-5.0420556E-3,1.3432527E-2,-4.7870018E-3,-2.4293226E-4,9.335998E-3,-1.0866489E-2,-1.32376375E-2,7.0595564E-3,2.6055133E-2,1.1257352E-2,1.3371567E-3,-5.401235E-3,-1.4032989E-2,4.2222088E-4,-1.42213525E-2,-2.4508832E-2,4.5326385E-3,1.5106525E-3,-9.205604E-4,-2.681222E-3],"categories":[],"categories_nodes":[],"categories_segments":[],"categories_sizes":[],"default_left":[0,0,0,0,0,0,0,0,0,0,0,0,0,0,0,0,0,0,0,0,0,0,0,0,0,0,0,0,0,0,0,0,0,0,0,0,0,0,0,0,0,0,0,0,0,0,0,0,0,0,0,0,0,0,0,0,0],"id":26,"left_children":[1,3,5,7,9,11,13,15,17,19,21,23,25,27,29,31,33,-1,-1,35,37,39,-1,41,43,45,47,49,51,53,55,-1,-1,-1,-1,-1,-1,-1,-1,-1,-1,-1,-1,-1,-1,-1,-1,-1,-1,-1,-1,-1,-1,-1,-1,-1,-1],"loss_changes":[2.936982E0,2.3744726E0,6.044209E-1,9.2040634E-1,9.887035E-1,1.4926028E0,1.501797E0,9.083142E-2,4.0244293E-1,9.31087E-1,5.5449426E-2,1.7345216E0,1.2789727E0,2.563294E0,9.783596E-2,1.9570518E-2,2.2612512E-2,0E0,0E0,2.973853E0,2.8979845E0,4.1180763E-2,0E0,1.1759073E0,2.93063E0,3.251841E-1,1.2621301E-1,1.1891797E0,2.434063E-1,3.0167118E-2,3.3211056E-3,0E0,0E0,0E0,0E0,0E0,0E0,0E0,0E0,0E0,0E0,0E0,0E0,0E0,0E0,0E0,0E0,0E0,0E0,0E0,0E0,0E0,0E0,0E0,0E0,0E0,0E0],"parents":[2147483647,0,0,1,1,2,2,3,3,4,4,5,5,6,6,7,7,8,8,9,9,10,10,11,11,12,12,13,13,14,14,15,15,16,16,19,19,20,20,21,21,23,23,24,24,25,25,26,26,27,27,28,28,29,29,30,30],"right_children":[2,4,6,8,10,12,14,16,18,20,22,24,26,28,30,32,34,-1,-1,36,38,40,-1,42,44,46,48,50,52,54,56,-1,-1,-1,-1,-1,-1,-1,-1,-1,-1,-1,-1,-1,-1,-1,-1,-1,-1,-1,-1,-1,-1,-1,-1,-1,-1],"split_conditions":[7E0,2E0,1.1E1,2.559E1,8.836E1,2.684E1,1.3E1,1.738E1,7.72E1,4E0,6E0,1.738E1,7.72E1,2.684E1,8.513E1,1.308E1,2.029E1,-2.0188105E-3,-1.8867858E-2,2.029E1,1.738E1,4E0,-8.478278E-3,1E1,1E1,8E0,1E1,1.738E1,7.72E1,7.848E1,2.257E1,5.15186E-3,7.8980485E-4,-1.1546339E-3,-4.627755E-3,1.2981049E-2,-5.5445745E-3,-5.0420556E-3,1.3432527E-2,-4.7870018E-3,-2.4293226E-4,9.335998E-3,-1.0866489E-2,-1.32376375E-2,7.0595564E-3,2.6055133E-2,1.1257352E-2,1.3371567E-3,-5.401235E-3,-1.4032989E-2,4.2222088E-4,-1.42213525E-2,-2.4508832E-2,4.5326385E-3,1.5106525E-3,-9.205604E-4,-2.681222E-3],"split_indices":[2,2,2,0,1,0,2,0,1,2,2,0,1,0,1,0,0,0,0,0,0,2,0,2,2,2,2,0,1,1,0,0,0,0,0,0,0,0,0,0,0,0,0,0,0,0,0,0,0,0,0,0,0,0,0,0,0],"split_type":[0,0,0,0,0,0,0,0,0,0,0,0,0,0,0,0,0,0,0,0,0,0,0,0,0,0,0,0,0,0,0,0,0,0,0,0,0,0,0,0,0,0,0,0,0,0,0,0,0,0,0,0,0,0,0,0,0],"sum_hessian":[2.496E3,1.149E3,1.347E3,1.94E2,9.55E2,7.67E2,5.8E2,1.17E2,7.7E1,8.57E2,9.8E1,5.27E2,2.4E2,3.96E2,1.84E2,4.1E1,7.6E1,1.9E1,5.8E1,3.48E2,5.09E2,7.9E1,1.9E1,1.56E2,3.71E2,8.4E1,1.56E2,2.76E2,1.2E2,1.36E2,4.8E1,2E1,2.1E1,4.1E1,3.5E1,1.57E2,1.91E2,1.07E2,4.02E2,3.9E1,4E1,1.19E2,3.7E1,2.76E2,9.5E1,2E1,6.4E1,1.21E2,3.5E1,7.9E1,1.97E2,4E1,8E1,7.5E1,6.1E1,1.9E1,2.9E1],"tree_param":{"num_deleted":"0","num_feature":"3","num_nodes":"57","size_leaf_vector":"1"}},{"base_weights":[-2.3727384E-4,3.317523E-2,-2.8741831E-2,-5.748053E-2,5.1632028E-2,3.1055672E-2,-3.4932945E-2,-6.8271765E-3,-1.3337304E-1,7.076311E-2,7.0128357E-3,-1.0527679E-2,4.637139E-2,-1.8078566E-2,-5.720019E-2,2.7048338E-2,-2.5216065E-2,-1.8270124E-3,-1.701304E-1,1.0850908E-1,5.5342287E-2,-3.706881E-2,3.7828736E-2,-3.4704718E-3,7.242952E-4,1.6020633E-2,1.0944439E-2,-5.221487E-2,4.6727944E-2,-8.8882715E-2,1.1439991E-2,4.6612173E-3,7.1442995E-4,-1.0419403E-3,-4.1778395E-3,-1.4994453E-2,-1.9951701E-2,3.0343712E-3,1.2810716E-2,6.590832E-3,1.040934E-3,-2.2015222E-3,-5.0553316E-3,1.0369648E-2,1.8837495E-4,-3.5357096E-3,5.1029255E-3,3.541866E-3,-7.2333864E-3,1.3585049E-2,-1.820745E-4,-3.6851743E-3,-1.913501E-2,4.9284133E-3,-1.2655144E-4],"categories":[],"categories_nodes":[],"categories_segments":[],"categories_sizes":[],"default_left":[0,0,0,0,0,0,0,0,0,0,0,0,0,0,0,0,0,0,0,0,0,0,0,0,0,0,0,0,0,0,0,0,0,0,0,0,0,0,0,0,0,0,0,0,0,0,0,0,0,0,0,0,0,0,0],"id":27,"left_children":[1,3,5,7,9,11,13,15,17,19,21,23,25,27,29,31,33,-1,35,37,39,41,43,-1,-1,-1,45,47,49,51,53,-1,-1,-1,-1,-1,-1,-1,-1,-1,-1,-1,-1,-1,-1,-1,-1,-1,-1,-1,-1,-1,-1,-1,-1],"loss_changes":[2.379118E0,1.9271652E0,5.001322E-1,7.487104E-1,8.155582E-1,8.1371784E-2,4.575833E-1,7.418816E-2,3.2690036E-1,3.8340235E-1,3.9262593E-1,1.5288807E-2,3.7329936E-1,1.5443813E0,1.144906E0,1.6021762E-2,1.8434867E-2,0E0,5.081892E-3,2.9176807E-1,2.2577596E-1,2.3042902E-2,4.0229923E-1,0E0,0E0,0E0,1.3543542E-1,8.0829823E-1,1.0430019E0,1.9122796E0,8.03608E-2,0E0,0E0,0E0,0E0,0E0,0E0,0E0,0E0,0E0,0E0,0E0,0E0,0E0,0E0,0E0,0E0,0E0,0E0,0E0,0E0,0E0,0E0,0E0,0E0],"parents":[2147483647,0,0,1,1,2,2,3,3,4,4,5,5,6,6,7,7,8,8,9,9,10,10,11,11,12,12,13,13,14,14,15,15,16,16,18,18,19,19,20,20,21,21,22,22,26,26,27,27,28,28,29,29,30,30],"right_children":[2,4,6,8,10,12,14,16,18,20,22,24,26,28,30,32,34,-1,36,38,40,42,44,-1,-1,-1,46,48,50,52,54,-1,-1,-1,-1,-1,-1,-1,-1,-1,-1,-1,-1,-1,-1,-1,-1,-1,-1,-1,-1,-1,-1,-1,-1],"split_conditions":[7E0,2E0,1.308E1,2.559E1,8.513E1,9E0,1.1E1,1.738E1,7.72E1,7.72E1,4E0,8E0,1E1,2.684E1,1.3E1,1.308E1,2.029E1,-1.8270124E-3,2.691E1,3E0,2.691E1,3E0,5E0,-3.4704718E-3,7.242952E-4,1.6020633E-2,1.2E1,1.738E1,7.72E1,2.684E1,7.72E1,4.6612173E-3,7.1442995E-4,-1.0419403E-3,-4.1778395E-3,-1.4994453E-2,-1.9951701E-2,3.0343712E-3,1.2810716E-2,6.590832E-3,1.040934E-3,-2.2015222E-3,-5.0553316E-3,1.0369648E-2,1.8837495E-4,-3.5357096E-3,5.1029255E-3,3.541866E-3,-7.2333864E-3,1.3585049E-2,-1.820745E-4,-3.6851743E-3,-1.913501E-2,4.9284133E-3,-1.2655144E-4],"split_indices":[2,2,0,0,1,2,2,0,1,1,2,2,2,0,2,0,0,0,0,2,0,2,2,0,0,0,2,0,1,0,1,0,0,0,0,0,0,0,0,0,0,0,0,0,0,0,0,0,0,0,0,0,0,0,0],"split_type":[0,0,0,0,0,0,0,0,0,0,0,0,0,0,0,0,0,0,0,0,0,0,0,0,0,0,0,0,0,0,0,0,0,0,0,0,0,0,0,0,0,0,0,0,0,0,0,0,0,0,0,0,0,0,0],"sum_hessian":[2.496E3,1.149E3,1.347E3,1.94E2,9.55E2,1.26E2,1.221E3,1.17E2,7.7E1,6.68E2,2.87E2,3.4E1,9.2E1,6.96E2,5.25E2,4.1E1,7.6E1,1.9E1,5.8E1,1.92E2,4.76E2,1.18E2,1.69E2,1.4E1,2E1,2.1E1,7.1E1,4.56E2,2.4E2,3.59E2,1.66E2,2E1,2.1E1,4.1E1,3.5E1,3.8E1,2E1,3.9E1,1.53E2,3.85E2,9.1E1,5.7E1,6.1E1,5.9E1,1.1E2,3.3E1,3.8E1,8.5E1,3.71E2,8.4E1,1.56E2,2.39E2,1.2E2,4.1E1,1.25E2],"tree_param":{"num_deleted":"0","num_feature":"3","num_nodes":"55","size_leaf_vector":"1"}},{"base_weights":[-2.1486002E-4,2.9849153E-2,-2.5862783E-2,-7.2447145E-3,6.773805E-2,2.806689E-2,-3.1446423E-2,7.512235E-2,-6.485652E-2,2.5573047E-2,1.6252342E-1,-9.553405E-3,4.1923273E-2,6.691481E-4,-4.1170824E-2,2.7157959E-2,1.7071167E-1,-4.152603E-2,-1.8118978E-1,1.2148187E-1,-2.1934986E-2,2.1743497E-1,5.633732E-2,-3.1465658E-3,6.5531273E-4,1.4491378E-2,9.871681E-3,-9.6676275E-2,3.7170462E-2,-1.9640654E-2,-5.756483E-2,7.1399556E-3,1.242991E-3,3.2783493E-2,1.1287332E-2,-5.38316E-3,4.9475726E-4,-1.2303582E-2,-3.2251954E-2,1.4029405E-2,2.1899072E-3,-1.39831705E-2,2.2771724E-3,1.4973811E-2,2.8608456E-2,1.2968311E-2,1.739588E-3,-3.1925344E-3,4.6056993E-3,-3.3055346E-2,1.0137617E-2,1.1746424E-2,-1.7084315E-3,1.0322246E-2,-4.286649E-3,-8.155416E-4,-9.693126E-3],"categories":[],"categories_nodes":[],"categories_segments":[],"categories_sizes":[],"default_left":[0,0,0,0,0,0,0,0,0,0,0,0,0,0,0,0,0,0,0,0,0,0,0,0,0,0,0,0,0,0,0,0,0,0,0,0,0,0,0,0,0,0,0,0,0,0,0,0,0,0,0,0,0,0,0,0,0],"id":28,"left_children":[1,3,5,7,9,11,13,15,17,19,21,23,25,27,29,31,33,35,37,39,41,43,45,-1,-1,-1,47,49,51,53,55,-1,-1,-1,-1,-1,-1,-1,-1,-1,-1,-1,-1,-1,-1,-1,-1,-1,-1,-1,-1,-1,-1,-1,-1,-1,-1],"loss_changes":[1.9261576E0,1.6167535E0,4.067974E-1,2.766646E0,2.2699234E0,6.660321E-2,3.8166392E-1,1.0957355E0,9.234164E-1,1.8024584E0,1.0081477E0,1.2558764E-2,3.055634E-1,1.0162659E0,3.2995117E-1,